<?xml version="1.0"?>
<opencv_storage>
<opencv_ml_svm>
  <format>3</format>
  <svmType>C_SVC</svmType>
  <kernel>
    <type>LINEAR</type></kernel>
  <C>1.</C>
  <term_criteria><iterations>20000</iterations></term_criteria>
  <var_count>5200</var_count>
  <class_count>7</class_count>
  <class_labels type_id="opencv-matrix">
    <rows>7</rows>
    <cols>1</cols>
    <dt>i</dt>
    <data>
      -1 1 2 3 4 5 6</data></class_labels>
  <sv_total>21</sv_total>
  <support_vectors>
    <_>
      0. 0. 0. 0. 0. 0. 0. 0. 0. 0. 0. 0. 0. 0. 0. 0. 0. -1.19275816e-08
      -1.19275816e-08 -1.19275816e-08 -2.35148470e-08 -2.31745307e-08
      -2.38551632e-08 0. 0. 0. 0. 0. 0. 0. 0. 0. 0. 0. 0. 0. 0. 0. 0. 0.
      0. 0. 0. 0. 0. 0. 0. 0. 0. 0. 0. 0. 0. 0. 0. 0. 0. 0.
      -2.38551632e-08 -1.19275816e-08 -2.35148470e-08 -3.51021114e-08
      -3.51021114e-08 0. 0. 0. 0. 0. 0. 0. 0. 0. 0. 0. 0. 0. 0. 0. 0. 0.
      0. 0. 0. 0. 0. 0. 0. 0. 0. 0. 0. 0. 0. 0. 0. 0. 0. -2.38551632e-08
      -2.38551632e-08 -1.19275816e-08 -1.15872654e-08 -2.35148470e-08
      -2.35148470e-08 0. 0. 0. 0. 0. 0. 0. 0. 0. 0. 0. 0. 0. 0. 0. 0. 0.
      0. 0. 0. 0. 0. 0. 0. 0. 0. 0. 0. 0. 0. 0. 0. 0. 0. -1.19275816e-08
      -2.38551632e-08 -1.19275816e-08 -3.51021114e-08 -2.35148470e-08
      -2.35148470e-08 0. 0. 0. 0. 0. 0. 0. 0. 0. 0. 0. 0. 0. 0. 0. 0. 0.
      0. 0. 0. 0. 0. 0. 0. 0. 0. 0. 0. 0. 0. 0. 0. 0. 0. 0.
      -2.38551632e-08 -1.19275816e-08 -3.51021114e-08 -9.65453523e-07
      -3.51021114e-08 0. 0. 0. 0. 0. 0. 0. 0. 0. 0. 0. 0. 0. 0. 0. 0. 0.
      0. 0. 0. 0. 0. 0. 0. 0. 0. 0. 0. 0. 0. 0. 0. 0. 0. 0. 0.
      -4.77103264e-08 -4.76762949e-07 -3.04119294e-06 -3.13536788e-07 0.
      0. 0. 0. 0. 0. 0. 0. 0. 0. 0. 0. 0. 0. 0. 0. 0. 0. 0. 0. 0. 0. 0.
      0. 0. 0. 0. 0. 0. 0. 0. 0. 0. 0. 0. -2.38551632e-08 0.
      -3.07595474e-06 -3.01733780e-06 -1.87815795e-06 0. 0. 0. 0. 0. 0.
      0. 0. 0. 0. 0. 0. 0. 0. 0. 0. 0. 0. 0. 0. 0. 0. 0. 0. 0. 0. 0. 0.
      0. 0. 0. 0. 0. 0. 0. -2.38551632e-08 -3.22044713e-07
      -3.05312051e-06 -4.59388639e-06 -1.85464307e-06 0. 0. 0. 0. 0. 0.
      0. 0. 0. 0. 0. 0. 0. 0. 0. 0. 0. 0. 0. 0. 0. 0. 0. 0. 0. 0. 0. 0.
      0. 0. 0. 0. 0. 0. 0. -1.19275816e-08 -2.21853020e-06
      -3.02926537e-06 -5.62447258e-06 -1.85430281e-06 0. 0. 0. 0. 0. 0.
      0. 0. 0. 0. 0. 0. 0. 0. 0. 0. 0. 0. 0. 0. 0. 0. 0. 0. 0. 0. 0. 0.
      0. 0. 0. 0. -2.38551632e-08 -1.19275816e-08 -1.19275816e-08
      -1.15872654e-08 -3.01767818e-06 -3.04119294e-06 -5.97243070e-06
      -2.42173837e-06 0. 0. 0. 0. 0. 0. 0. 0. 0. 0. 0. 0. 0. 0. 0. 0. 0.
      0. 0. 0. 0. 0. 0. 0. 0. 0. 0. 0. 0. 0. 0. 0. -2.38551632e-08
      -1.19275816e-08 -1.19275816e-08 -1.18194855e-07 -3.01767818e-06
      -3.05312051e-06 -5.98435827e-06 -2.99680960e-06 0. 0. 0. 0. 0. 0.
      0. 0. 0. 0. 0. 0. 0. 0. 0. 0. 0. 0. 0. 0. 0. 0. 0. 0. 0. 0. 0. 0.
      0. 0. 0. -1.19275816e-08 -1.19275816e-08 -1.19275816e-08
      -6.52313759e-08 -4.87549585e-07 -3.04119294e-06 -3.76655817e-06
      -6.03766239e-06 -3.02032436e-06 0. 0. 0. 0. 0. 0. 0. 0. 0. 0. 0.
      0. 0. 0. 0. 0. 0. 0. 0. 0. 0. 0. 0. 0. 0. 0. 0. 0. 0. 0. 0. 0.
      -3.57827439e-08 0. -1.53977595e-07 -1.33520848e-06 -4.11851579e-06
      -7.07988283e-06 -6.09130620e-06 -3.01998398e-06 0. 0. 0. 0. 0. 0.
      0. 0. 0. 0. 0. 0. 0. 0. 0. 0. 0. 0. 0. 0. 0. 0. 0. 0. 0. 0. 0. 0.
      0. 0. 0. 0. 0. -2.38551632e-08 -3.51021114e-08 -2.99308226e-06
      -1.59271312e-05 -1.85226781e-05 -6.10289362e-06 -2.94384608e-06 0.
      0. 0. 0. 0. 0. 0. 0. 0. 0. 0. 0. 0. 0. 0. 0. 0. 0. 0. 0. 0. 0. 0.
      0. 0. 0. 0. 0. 0. 0. 0. 0. -1.19275816e-08 0. -2.38551632e-08
      -7.00884857e-06 -1.88676804e-05 -1.95122757e-05 -6.15619729e-06
      -2.94316533e-06 0. 0. 0. 0. 0. 0. 0. 0. 0. 0. 0. 0. 0. 0. 0. 0. 0.
      0. 0. 0. 0. 0. 0. 0. 0. 0. 0. 0. 0. 0. 0. -1.19275816e-08
      -1.19275816e-08 0. -1.19173717e-06 -8.16994452e-06 -1.95354496e-05
      -1.94467029e-05 -9.18292608e-06 -3.03225193e-06 0. 0. 0. 0. 0. 0.
      0. 0. 0. 0. 0. 0. 0. 0. 0. 0. 0. 0. 0. 0. 0. 0. 0. 0. 0. 0. 0. 0.
      0. 0. 0. -1.19275816e-08 0. -2.38551632e-08 -2.48584979e-06
      -1.33817293e-05 -1.94586319e-05 -1.94463628e-05 -8.74456873e-06
      -3.04417949e-06 0. 0. 0. 0. 0. 0. 0. 0. 0. 0. 0. 0. 0. 0. 0. 0. 0.
      0. 0. 0. 0. 0. 0. 0. 0. 0. 0. 0. 0. 0. 0. 0. 0. -4.77103264e-08
      -5.66500648e-06 -1.94880795e-05 -1.93933993e-05 -1.95115954e-05
      -5.94891617e-06 -3.02032436e-06 0. 0. 0. 0. 0. 0. 0. 0. 0. 0. 0.
      0. 0. 0. 0. 0. 0. 0. 0. 0. 0. 0. 0. 0. 0. 0. 0. 0. 0. 0. 0.
      -1.19275816e-08 0. -1.19275816e-08 -1.14747800e-05 -1.95652392e-05
      -1.95768262e-05 -1.95768262e-05 -6.77232811e-06 -2.95509290e-06 0.
      0. 0. 0. 0. 0. 0. 0. 0. 0. 0. 0. 0. 0. 0. 0. 0. 0. 0. 0. 0. 0. 0.
      0. 0. 0. 0. 0. 0. 0. 0. 0. -7.64783294e-08 -4.66893795e-08
      -1.15820467e-05 -1.96539640e-05 -1.96423771e-05 -1.96006604e-05
      -1.12203552e-05 -3.06167908e-06 -6.52098535e-08 -6.52098535e-08 0.
      0. 0. 0. 0. 0. 0. 0. 0. 0. 0. 0. 0. 0. 0. 0. 0. 0. 0. 0. 0. 0. 0.
      0. 0. 0. 0. 0. 0. -2.38551632e-08 -2.31745307e-08 -2.54057500e-06
      -1.73867975e-05 -1.96423771e-05 -1.95655794e-05 -1.95887314e-05
      -1.11670734e-05 -3.10904898e-06 -6.52098535e-08 0. -1.95629568e-07
      0. 0. 0. 0. 0. 0. 0. 0. 0. 0. 0. 0. 0. 0. 0. 0. 0. 0. 0. 0. 0. 0.
      0. 0. 0. 0. 0. 0. -7.68186439e-08 -2.15221780e-06 -3.12428574e-06
      -1.84882610e-05 -1.97075860e-05 -1.96423771e-05 -1.95658977e-05
      -7.58381248e-06 -1.44317091e-05 -1.15421444e-05 0. -6.52098535e-08
      0. 0. 0. 0. 0. 0. 0. 0. 0. 0. 0. 0. 0. 0. 0. 0. 0. 0. 0. 0. 0. 0.
      0. 0. 0. 0. 0. 0. -5.33037934e-08 -3.18951720e-06 -3.09449683e-06
      -1.85534918e-05 -1.96307883e-05 -1.95771663e-05 -1.94764925e-05
      -6.14492910e-06 -1.89039529e-05 -1.65633028e-05 -1.17377738e-06
      -6.52098535e-08 0. 0. 0. 0. 0. 0. 0. 0. 0. 0. 0. 0. 0. 0. 0. 0. 0.
      0. 0. 0. 0. 0. 0. 0. 0. 0. 0. 0. 0. -3.20110439e-06
      -9.26147004e-06 -1.89170114e-05 -1.96307883e-05 -1.96423771e-05
      -1.94880795e-05 -1.20297609e-05 -1.88350878e-05 -1.64980938e-05
      -2.15192517e-06 0. 0. 0. 0. 0. 0. 0. 0. 0. 0. 0. 0. 0. 0. 0. 0. 0.
      0. 0. 0. 0. 0. 0. 0. 0. 0. 0. 0. 0. -1.19275816e-08
      -3.10574387e-06 -1.92752177e-05 -1.94705590e-05 -1.96423771e-05
      -1.97075860e-05 -1.95003486e-05 -2.26439861e-05 -1.96369092e-05
      -1.64328831e-05 -2.08671531e-06 -6.52098535e-08 0. 0. 0. 0. 0. 0.
      0. 0. 0. 0. 0. 0. 0. 0. 0. 0. 0. 0. 0. 0. 0. 0. 0. 0. 0. 0. 0. 0.
      -5.33037934e-08 -4.26615952e-06 -1.95536522e-05 -1.95420653e-05
      -1.95771663e-05 -1.95539924e-05 -1.94466829e-05 -2.75644925e-05
      -1.96365690e-05 -1.65633028e-05 -2.08671531e-06 -1.95629568e-07 0.
      0. 0. 0. 0. 0. 0. 0. 0. 0. 0. 0. 0. 0. 0. 0. 0. 0. 0. 0. 0. 0. 0.
      0. 0. 0. 0. 0. -1.15872654e-08 -1.59569190e-05 -1.95006887e-05
      -1.94702188e-05 -1.96423771e-05 -1.96423771e-05 -1.95655794e-05
      -2.76648479e-05 -1.96014898e-05 -1.66285135e-05 -2.08671531e-06 0.
      0. 0. 0. 0. 0. 0. 0. 0. 0. 0. 0. 0. 0. 0. 0. 0. 0. 0. 0. 0. 0. 0.
      0. 0. 0. 0. 0. 0. 0. -1.69514897e-05 -1.95533121e-05
      -1.96539640e-05 -1.96539640e-05 -1.95771663e-05 -3.23582972e-05
      -2.76651663e-05 -1.95717002e-05 -1.65633028e-05 -1.32376008e-05
      -6.52098535e-08 0. 0. 0. 0. 0. 0. 0. 0. 0. 0. 0. 0. 0. 0.
      -4.47976412e-08 4.97540142e-08 -3.86857479e-09 0. 0. 0. 0. 0. 0.
      0. 0. 0. 0. -5.33037934e-08 -3.14492399e-06 -1.63742443e-05
      -1.94169152e-05 -1.95887314e-05 -1.96420369e-05 -2.97498827e-05
      -3.62053397e-05 -2.77068611e-05 -1.96071433e-05 -1.65633028e-05
      -1.65633028e-05 -6.52098535e-08 0. 0. 0. 0. 0. 0. 0. 0. 0. 0.
      6.94968616e-09 6.94968616e-09 8.87247040e-08 1.48978188e-07
      -3.47161944e-09 -2.67243099e-08 -5.33037934e-08 0. 0. 0. 0. 0. 0.
      0. 0. 0. -5.33037934e-08 -5.33037934e-08 -9.01992826e-06
      -1.63123568e-05 -1.93698852e-05 -1.95771445e-05 -1.96069341e-05
      -3.60401355e-05 -3.60871454e-05 -2.77184481e-05 -1.96723522e-05
      -1.65633028e-05 -1.65633028e-05 0. 0. 0. 0. 0. 0. 0. 0. 0. 0.
      1.38993723e-08 6.94968616e-09 6.94968616e-09 3.82583323e-07
      9.69041139e-07 6.32049364e-07 -9.61246016e-08 -1.79876452e-07 0.
      0. 0. 0. 0. 0. 0. 0. 0. -1.59911380e-07 -5.33037934e-08
      -1.36040553e-05 -1.66333211e-05 -1.93996748e-05 -1.95652392e-05
      -2.13798467e-05 -3.60401355e-05 -3.60457670e-05 -2.77714116e-05
      -1.96604251e-05 -1.65633028e-05 -1.65633028e-05 0. 0. 0. 0. 0. 0.
      0. 0. 0. 0. 2.77987446e-08 1.38993723e-08 6.94968616e-09
      1.05867468e-06 1.69998884e-06 2.69542284e-06 -2.49429633e-08
      -1.10932075e-09 0. 0. 0. 0. 0. 0. 0. 0. 0. -1.06607587e-07
      -1.06607587e-07 -1.22598731e-05 -1.65919446e-05 -1.93106480e-05
      -2.11306160e-05 -2.72722264e-05 -3.59153491e-05 -3.62053397e-05
      -2.69483407e-05 -1.94213844e-05 -1.64328831e-05 -1.65633028e-05
      -6.52098535e-08 0. 0. 0. 0. 0. 0. 0. 0. 0. 6.94968616e-09
      2.77987446e-08 6.94968616e-09 1.97512441e-06 1.72846012e-06
      6.16022362e-06 -7.32688648e-08 -2.18410293e-07 0. 0. 0. 0. 0. 0.
      0. 0. 0. 0. 0. -5.14101930e-06 -1.66220743e-05 -1.95887533e-05
      -2.98799623e-05 -3.59150290e-05 -3.59984406e-05 -3.61106577e-05
      -2.26132124e-05 -1.85063309e-05 -1.66285135e-05 -1.64328831e-05
      -1.30419707e-07 0. 0. 0. 0. 0. 0. 0. 0. 0. 4.16981152e-08
      6.94968616e-09 2.08490576e-08 1.73244359e-06 2.20752759e-06
      3.11021358e-05 5.36225890e-08 1.63758443e-07 0. 0. 0. 0. 0. 0. 0.
      0. 0. -5.33037934e-08 -1.06607587e-07 -5.01055683e-06
      -5.43289707e-06 -1.95304765e-05 -2.97853039e-05 -3.58441466e-05
      -3.58498219e-05 -3.60868034e-05 -2.26012853e-05 -1.84831570e-05
      -1.64980938e-05 -1.65633028e-05 -6.52098535e-08 0. 0. 0. 0. 0. 0.
      0. 0. 0. 1.38993723e-08 1.38993723e-08 1.38993723e-08
      1.95821895e-06 5.36463767e-06 3.59146725e-05 4.75210481e-06
      -2.65744369e-08 0. 0. 0. 0. 0. 0. 0. 0. 0. -5.33037934e-08
      -5.33037934e-08 -5.07544792e-06 -3.40039833e-06 -1.95003486e-05
      -2.85030583e-05 -3.31162264e-05 -3.60335216e-05 -3.61404491e-05
      -2.61607111e-05 -1.84828168e-05 -1.65633028e-05 -1.65633028e-05
      -6.52098535e-08 0. 0. 0. 0. 0. 0. 0. 0. 0. 6.94968616e-09
      6.94968616e-09 7.71415159e-07 1.88837146e-06 2.65158869e-05
      2.71995978e-05 1.00292309e-05 -3.08111137e-09 0. 0. 0. 0. 0. 0. 0.
      0. 0. 0. -5.33037934e-08 -5.07544792e-06 -1.07149453e-05
      -1.95235225e-05 -2.28446879e-05 -3.09424031e-05 -3.60219346e-05
      -3.60758968e-05 -2.77717518e-05 -1.90621795e-05 -1.65633028e-05
      -8.73812041e-06 -1.95629568e-07 0. 0. 0. 0. 0. 0. 0. 0. 0. 0. 0.
      1.10500014e-06 1.88339357e-06 2.68175972e-05 1.67531871e-05
      1.29591881e-05 -5.67037013e-08 0. 0. 0. 0. 0. 0. 0. 0. 0.
      -5.33037934e-08 -5.33037934e-08 -5.07544792e-06 -1.69514897e-05
      -1.95533121e-05 -1.72514501e-05 -2.68863787e-05 -3.50135015e-05
      -3.60758968e-05 -2.77303770e-05 -1.96372512e-05 -1.65633028e-05
      -7.62955278e-06 -1.95629568e-07 0. 0. 0. 0. 0. 0. 0. 0. 0.
      6.94968616e-09 6.94968616e-09 1.10500014e-06 1.96516862e-06
      1.94177446e-05 9.47802982e-06 1.63482327e-05 -2.03348264e-07 0. 0.
      0. 0. 0. 0. 0. 0. 0. -1.06607587e-07 -1.06607587e-07
      -5.06386050e-06 -1.68703791e-05 -1.95533121e-05 -1.41940154e-05
      -2.19008398e-05 -3.35561490e-05 -3.62053397e-05 -2.77184481e-05
      -1.96369092e-05 -1.65633028e-05 -1.65633028e-05 -6.52098535e-08 0.
      0. 0. 0. 0. 0. 0. 0. 0. 1.38993723e-08 0. 1.26484292e-06
      1.98207408e-06 1.95836055e-05 1.64867757e-07 2.69956890e-05
      -2.11875928e-07 0. 0. 0. 0. 0. 0. 0. 0. 0. -5.33037934e-08
      -5.33037934e-08 -5.70350630e-06 -1.63246241e-05 -1.82351268e-05
      -1.03150851e-05 -2.27599648e-05 -3.35147924e-05 -3.62056780e-05
      -2.75999355e-05 -1.97431782e-05 -1.66285135e-05 -1.66285135e-05 0.
      0. 0. 0. 0. 0. 0. 0. 0. 0. 0. 0. 1.77216998e-06 1.70693863e-06
      1.95053653e-05 1.02642488e-07 2.57875727e-05 -8.83843896e-08 0. 0.
      0. 0. 0. 0. 0. 0. 0. -5.33037934e-08 -5.33037934e-08
      -1.29528225e-05 -1.41355431e-05 -3.86478723e-06 -1.04984892e-05
      -2.29552770e-05 -3.35382865e-05 -3.59040787e-05 -2.75466318e-05
      -1.94829754e-05 -1.66285135e-05 -1.66285135e-05 0. 0. 0. 0. 0. 0.
      0. 0. 0. 0. 0. 0. 1.75827063e-06 1.66024915e-06 1.92475763e-05
      9.40429175e-08 1.45582844e-05 -1.35078807e-07 0. 0. 0. 0. 0. 0. 0.
      0. 0. 0. 0. -1.35090349e-05 -1.39857375e-05 -2.00044792e-06
      -2.47799608e-06 -2.20315997e-05 -3.31714873e-05 -3.61523744e-05
      -2.76538976e-05 -1.95481862e-05 -1.66285135e-05 -1.66285135e-05 0.
      0. 0. 0. 0. 0. 0. 0. 0. 0. 6.94968616e-09 2.77987446e-08
      1.76522030e-06 1.74865511e-06 1.72577747e-05 7.71589583e-08
      1.11909394e-05 -1.28129130e-07 0. 0. 0. 0. 0. 0. 0. 0. 0.
      -5.33037934e-08 -5.33037934e-08 -1.35626788e-05 -1.26513214e-05
      -7.04536603e-07 -6.46772469e-06 -2.16271856e-05 -3.33873322e-05
      -3.60752383e-05 -2.77068611e-05 -1.95481862e-05 -1.66285135e-05
      -1.66285135e-05 0. 0. 0. 0. 0. 0. 0. 0. 0. 0. 6.94968616e-09
      1.38993723e-08 1.76522030e-06 -1.31107231e-06 1.82244257e-05
      7.68186439e-08 1.03215534e-05 -8.17750205e-08 0. 0. 0. 0. 0. 0. 0.
      0. 0. -5.33037934e-08 -5.33037934e-08 -7.31454747e-06
      -6.36666664e-06 -5.33037934e-08 -1.04451856e-05 -2.16622884e-05
      -3.34611723e-05 -2.94238325e-05 -2.75764414e-05 -1.96249821e-05
      -1.66285135e-05 -1.66285135e-05 0. 0. 0. 0. 0. 0. 0. 0. 0. 0.
      6.94968616e-09 0. 1.76522030e-06 2.27395662e-06 1.81363012e-05
      1.53615758e-07 8.75913429e-06 -1.47006389e-07 0. 0. 0. 0. 0. 0. 0.
      0. 0. -5.33037934e-08 -5.33037934e-08 -6.48910614e-08
      -1.19275816e-08 -1.18194855e-07 -1.04034689e-05 -2.42324568e-05
      -3.33724456e-05 -2.11306160e-05 -2.40862628e-05 -1.96249821e-05
      -1.66285135e-05 -1.66285135e-05 0. 0. 0. 0. 0. 0. 0. 0. 0. 0. 0.
      0. 1.75827063e-06 8.72916189e-06 1.66966147e-05 2.00310183e-07
      6.22838161e-06 -1.05289864e-07 0. 0. 0. 0. 0. 0. 0. 0. 0.
      -1.06607587e-07 -1.06607587e-07 -1.06607587e-07 -5.33037934e-08
      -7.64783294e-08 -1.04038099e-05 -2.99422372e-05 -3.10129653e-05
      -1.96493093e-05 -1.65010497e-05 -1.96018082e-05 -1.66285135e-05
      -1.66285135e-05 0. 0. 0. 0. 0. 0. 0. 0. 0. 0. 0. 0. 1.75827063e-06
      8.65234324e-06 1.66401005e-05 6.98474381e-08 -1.01627541e-06
      -1.23151224e-07 0. 0. 0. 0. 0. 0. 0. 0. 0. -5.33037934e-08
      -5.33037934e-08 -5.33037934e-08 -2.06600760e-07 -6.52313759e-08
      -1.04749743e-05 -3.00309403e-05 -1.70279673e-05 -1.94589720e-05
      -1.63828772e-05 -1.94948825e-05 -1.66285135e-05 -1.66285135e-05 0.
      0. 0. 0. 0. 0. 0. 0. 0. 0. 0. 0. 1.75827063e-06 8.51628738e-06
      1.66937443e-05 1.40035183e-07 -9.69921302e-07 -1.42368819e-07 0.
      0. 0. 0. 0. 0. 0. 0. 0. -5.33037934e-08 0. -1.71838963e-07
      -3.57827439e-08 -2.35148470e-08 -1.68355018e-06 -2.48204688e-05
      -1.67035032e-05 -1.97843838e-05 -1.63295517e-05 -1.95597731e-05
      -1.66285135e-05 -1.66285135e-05 0. 0. 0. 0. 0. 0. 0. 0. 0. 0.
      4.16981152e-08 0. 1.76522030e-06 8.67551807e-06 1.65900055e-05
      1.23151224e-07 6.25644498e-06 -1.83745030e-07 0. 0. 0. 0. 0. 0. 0.
      0. 0. 0. 0. -5.33037934e-08 -1.19275816e-08 0. -2.31745307e-08
      -1.67993385e-05 -1.68468632e-05 -1.95890734e-05 -1.64063695e-05
      -1.95064695e-05 -1.65633028e-05 -1.66285135e-05 -6.52098535e-08 0.
      0. 0. 0. 0. 0. 0. 0. 0. 2.08490576e-08 0. 1.76522030e-06
      8.78755054e-06 1.64547982e-05 1.94673177e-07 8.31624311e-06
      -2.83695158e-07 0. 0. 0. 0. 0. 0. 0. 0. 0. 0. 0. 0. 0. 0.
      -1.18194855e-07 -1.36156423e-05 -1.69514897e-05 -1.95238626e-05
      -1.91245235e-05 -1.95064695e-05 -1.65633028e-05 -1.64980938e-05
      -6.52098535e-08 0. 0. 0. 0. 0. 0. 0. 0. 0. 6.94968616e-09
      6.94968616e-09 1.75827063e-06 4.78534002e-06 8.63978039e-06
      2.18166505e-07 7.43551300e-06 -1.65181504e-07 0. 0. 0. 0. 0. 0. 0.
      0. 0. 0. 0. 0. 0. 0. -1.06607587e-07 -1.36156423e-05
      -1.69395626e-05 -1.95238626e-05 -2.14698903e-05 -1.95717002e-05
      -1.64980938e-05 -1.64980938e-05 0. 0. 0. 0. 0. 0. 0. 0. 0. 0.
      6.94968616e-09 6.94968616e-09 1.75827063e-06 1.54960412e-06
      2.07357175e-06 1.41688176e-07 7.86424243e-06 -1.18513654e-07 0. 0.
      0. 0. 0. 0. 0. 0. 0. 0. 0. 0. 0. 0. -1.19275816e-08
      -1.35510918e-05 -1.68581118e-05 -1.95119355e-05 -2.15116070e-05
      -1.96250039e-05 -1.64328831e-05 -1.65633028e-05 0. 0. 0. 0. 0. 0.
      0. 0. 0. 0. 6.94968616e-09 0. 1.75827063e-06 6.30853378e-07
      1.65252357e-06 2.25121241e-07 9.61162550e-06 -2.48933361e-07 0. 0.
      0. 0. 0. 0. 0. 0. 0. 0. 0. 0. 0. 0. -6.48910614e-08
      -1.28816573e-05 -1.65806978e-05 -1.94228487e-05 -2.14165866e-05
      -1.95717002e-05 -1.65633028e-05 -1.66285135e-05 0. 0. 0. 0. 0. 0.
      0. 0. 0. 0. 0. 6.94968616e-09 1.75827063e-06 -2.70263126e-06
      -2.49429633e-08 2.06898036e-07 1.22934252e-05 -5.33037934e-08 0.
      0. 0. 0. 0. 0. 0. 0. 0. 0. 0. 0. 0. 0. -8.87462264e-08
      -5.79225252e-06 -1.66340014e-05 -1.94347758e-05 -2.15764976e-05
      -1.95717002e-05 -1.66285135e-05 -1.65633028e-05 -1.95629568e-07 0.
      0. 0. 0. 0. 0. 0. 0. 0. 1.38993723e-08 1.38993723e-08
      1.76522030e-06 2.76450305e-06 -5.49886146e-08 1.30100915e-07
      1.25761708e-05 -1.53594243e-07 0. 0. 0. 0. 0. 0. 0. 0. 0. 0. 0. 0.
      0. 0. -1.19275816e-08 -1.15487219e-05 -1.66571754e-05
      -1.95235225e-05 -2.14463744e-05 -1.95717002e-05 -1.66285135e-05
      -1.64980938e-05 -1.95629568e-07 0. 0. 0. 0. 0. 0. 0. 0. 0. 0.
      6.94968616e-09 1.76522030e-06 -1.13492058e-06 1.05795543e-07
      1.30100915e-07 4.44418356e-06 -1.30100915e-07 0. 0. 0. 0. 0. 0. 0.
      0. 0. 0. 0. 0. 0. 0. 0. -1.42127619e-05 -1.66038717e-05
      -1.94705590e-05 -2.14165866e-05 -1.95183966e-05 -1.65633028e-05
      -1.64980938e-05 -1.30419707e-07 0. 0. 0. 0. 0. 0. 0. 0. 0. 0.
      6.94968616e-09 1.76522030e-06 1.11375243e-06 6.90784319e-08
      6.48910614e-08 -8.44798251e-07 -1.18513654e-07 0. 0. 0. 0. 0. 0.
      0. 0. 0. 0. 0. 0. 0. 0. 0. -1.46957991e-05 -1.65922847e-05
      -1.94172553e-05 -2.14698903e-05 -2.03891104e-05 -1.65633028e-05
      -1.65633028e-05 -6.52098535e-08 0. 0. 0. 0. 0. 0. 0. 0. 0.
      6.94968616e-09 6.94968616e-09 1.76522030e-06 3.28915644e-06
      3.42142759e-09 1.06607587e-07 1.30998251e-06 -1.18513654e-07 0. 0.
      0. 0. 0. 0. 0. 0. 0. 0. 0. 0. 0. 0. 0. -1.43498992e-05
      -1.66965692e-05 -1.95354496e-05 -2.08864931e-05 -2.08953206e-05
      -1.66285135e-05 -1.65633028e-05 0. 0. 0. 0. 0. 0. 0. 0. 0. 0.
      6.94968616e-09 0. 1.76522030e-06 3.33087314e-06 4.86662159e-08
      2.76431734e-07 6.78688048e-06 -1.23151224e-07 0. 0. 0. 0. 0. 0. 0.
      0. 0. 0. 0. 0. 0. 0. -2.35148470e-08 -1.35746068e-05
      -1.69928662e-05 -1.95354496e-05 -1.95119355e-05 -1.96898727e-05
      -1.66285135e-05 -1.66285135e-05 0. 0. 0. 0. 0. 0. 0. 0. 0. 0.
      6.94968616e-09 0. 1.75827063e-06 4.00372892e-06 3.13824415e-07
      4.58161935e-07 6.84713359e-06 -7.64783294e-08 0. 0. 0. 0. 0. 0. 0.
      0. 0. 0. 0. 0. 0. 0. -7.68186439e-08 -1.35444770e-05
      -1.69925261e-05 -1.95771663e-05 -1.95420653e-05 -1.96666988e-05
      -1.66285135e-05 -1.66285135e-05 0. 0. 0. 0. 0. 0. 0. 0. 0. 0.
      2.77987446e-08 6.94968616e-09 1.76522030e-06 8.29582314e-06
      7.64783294e-08 3.30368067e-07 7.16408795e-06 -1.35057292e-07 0. 0.
      0. 0. 0. 0. 0. 0. 0. 0. 0. 0. 0. 0. -5.33037934e-08
      -7.41555323e-06 -1.69630766e-05 -1.94771728e-05 -1.23576392e-05
      -1.87632322e-05 -1.66285135e-05 -1.66285135e-05 0. 0. 0. 0. 0. 0.
      0. 0. 0. 0. 1.38993723e-08 0. 1.75132095e-06 8.38620599e-06
      1.95310776e-07 1.83404708e-07 7.39843426e-06 -8.60722835e-08 0. 0.
      0. 0. 0. 0. 0. 0. 0. 0. 0. 0. 0. 0. -3.47617970e-08
      -6.26187193e-06 -1.66846421e-05 -1.94764925e-05 -1.10485589e-05
      -1.85361205e-05 -1.66285135e-05 -1.66285135e-05 0. 0. 0. 0. 0. 0.
      0. 0. 0. 0. 6.94968616e-09 6.94968616e-09 1.76522030e-06
      8.33292324e-06 1.42028497e-07 2.48614555e-07 7.44015097e-06
      -1.88042293e-07 0. 0. 0. 0. 0. 0. 0. 0. 0. 0. 0. 0. 0. 0.
      -2.31745307e-08 -5.60026137e-06 -1.67773396e-05 -1.95297962e-05
      -1.10366318e-05 -1.91270701e-05 -1.66285135e-05 -1.66285135e-05 0.
      0. 0. 0. 0. 0. 0. 0. 0. 0. 0. 6.94968616e-09 1.76522030e-06
      1.18469870e-05 6.52313759e-08 1.88361085e-07 7.50040408e-06
      -2.30077617e-07 0. 0. 0. 0. 0. 0. 0. 0. 0. 0. 0. 0. 0. 0. 0.
      -8.32731985e-06 -1.69746636e-05 -1.94768327e-05 -1.10482188e-05
      -1.96369092e-05 -1.66285135e-05 -1.66285135e-05 0. 0. 0. 0. 0. 0.
      0. 0. 0. 0. 0. 6.94968616e-09 1.76522030e-06 1.22374504e-05
      1.83745030e-07 1.62248455e-08 7.53052836e-06 -5.82601700e-08 0. 0.
      0. 0. 0. 0. 0. 0. 0. 0. 0. 0. 0. 0. -1.15872654e-08
      -1.34679985e-05 -1.69627365e-05 -1.94821459e-05 -9.91691195e-06
      -1.95836055e-05 -1.66285135e-05 -1.66285135e-05 0. 0. 0. 0. 0. 0.
      0. 0. 0. 0. 0. 6.94968616e-09 1.76522030e-06 7.17489411e-06
      1.95332291e-07 6.98474381e-08 6.84222186e-06 -1.76773824e-07 0. 0.
      0. 0. 0. 0. 0. 0. 0. 0. 0. 0. 0. 0. -6.52313759e-08
      -1.35090349e-05 -1.68862589e-05 -1.95887533e-05 -5.98469887e-06
      -1.98449325e-05 -1.66285135e-05 -1.66285135e-05 0. 0. 0. 0. 0. 0.
      0. 0. 0. 0. 6.94968616e-09 2.08490576e-08 1.77216998e-06
      3.83209681e-06 1.35775920e-07 3.24547358e-08 -3.19028800e-07
      -6.48910614e-08 0. 0. 0. 0. 0. 0. 0. 0. 0. 0. 0. 0. 0. 0.
      -2.35148470e-08 -1.35510918e-05 -1.69276354e-05 -1.94589720e-05
      -5.96084374e-06 -2.13250332e-05 -1.66285135e-05 -1.66285135e-05 0.
      0. 0. 0. 0. 0. 0. 0. 0. 0. 6.94968616e-09 1.38993723e-08
      1.76522030e-06 9.01911790e-06 6.48910614e-08 -6.94968616e-09
      5.52816391e-06 0. 0. 0. 0. 0. 0. 0. 0. 0. 0. 0. 0. 0. 0. 0.
      -5.33037934e-08 -1.35924674e-05 -1.68329552e-05 -1.95238626e-05
      -5.96084374e-06 -2.15218079e-05 -1.66285135e-05 -1.66285135e-05 0.
      0. 0. 0. 0. 0. 0. 0. 0. 0. 0. 0. 1.77216998e-06 9.54543430e-06
      7.68186439e-08 -3.38813179e-21 7.43551300e-06 0. 0. 0. 0. 0. 0. 0.
      0. 0. 0. 0. 0. 0. 0. 0. -5.33037934e-08 -1.34974471e-05
      -1.68981860e-05 -1.95539924e-05 -6.06779167e-06 -1.96808433e-05
      -1.66285135e-05 -1.65633028e-05 0. 0. 0. 0. 0. 0. 0. 0. 0. 0. 0.
      0. 1.77216998e-06 5.76326238e-06 1.00652287e-07 -3.38813179e-21
      7.43551300e-06 0. 0. 0. 0. 0. 0. 0. 0. 0. 0. 0. 0. 0. 0. 0.
      -6.48910614e-08 -1.34974471e-05 -1.69399027e-05 -1.95539924e-05
      -6.02607497e-06 -1.90876763e-05 -1.66285135e-05 -1.65633028e-05
      -6.52098535e-08 0. 0. 0. 0. 0. 0. 0. 0. 0. 0. 0. 1.77216998e-06
      3.27370071e-06 1.89717298e-07 -3.38813179e-21 7.48186721e-06 0. 0.
      0. 0. 0. 0. 0. 0. 0. 0. 0. 0. 0. 0. 0. -1.18194855e-07
      -1.36040553e-05 -1.69514897e-05 -1.95536522e-05 -5.96084374e-06
      -1.96786259e-05 -1.65633028e-05 -1.65633028e-05 -1.30419707e-07 0.
      0. 0. 0. 0. 0. 0. 0. 0. 0. 0. 1.77216998e-06 4.67222071e-06
      1.78130037e-07 -3.38813179e-21 7.48186721e-06 0. 0. 0. 0. 0. 0. 0.
      0. 0. 0. 0. 0. 0. 0. 0. 0. -1.35623386e-05 -1.69514897e-05
      -1.94536588e-05 -6.02607497e-06 -1.95836055e-05 -1.64328831e-05
      -1.66285135e-05 -1.30419707e-07 0. 0. 0. 0. 0. 0. 0. 0. 0. 0. 0.
      1.77216998e-06 9.24411870e-06 6.48910614e-08 -3.38813179e-21
      7.43551300e-06 0. 0. 0. 0. 0. 0. 0. 0. 0. 0. 0. 0. 0. 0. 0.
      -6.48910614e-08 -1.36040553e-05 -1.69213599e-05 -1.95529719e-05
      -5.99628584e-06 -1.96488381e-05 -1.64980938e-05 -1.66285135e-05
      -6.52098535e-08 0. 0. 0. 0. 0. 0. 0. 0. 0. 0. 0. 1.77216998e-06
      1.43607012e-05 2.12211205e-07 -3.38813179e-21 7.48186721e-06 0. 0.
      0. 0. 0. 0. 0. 0. 0. 0. 0. 0. 0. 0. 0. -6.48910614e-08
      -6.39645532e-06 -1.69514897e-05 -1.95235225e-05 -9.36339711e-06
      -1.95836055e-05 -1.65633028e-05 -1.64980938e-05 -6.52098535e-08 0.
      0. 0. 0. 0. 0. 0. 0. 0. 0. 0. 1.77216998e-06 1.44927581e-05
      2.07238358e-07 -3.38813179e-21 7.48186721e-06 0. 0. 0. 0. 0. 0. 0.
      0. 0. 0. 0. 0. 0. 0. 0. 0. -5.12875158e-06 -1.66780283e-05
      -1.94705590e-05 -9.98914493e-06 -1.96369092e-05 -1.66285135e-05
      -1.65633028e-05 -6.52098535e-08 0. 0. 0. 0. 0. 0. 0. 0. 0. 0. 0.
      1.77216998e-06 1.45043450e-05 1.53615758e-07 -3.38813179e-21
      7.43551300e-06 0. 0. 0. 0. 0. 0. 0. 0. 0. 0. 0. 0. 0. 0. 0.
      -1.15872654e-08 -5.12875158e-06 -1.66154587e-05 -1.95238626e-05
      -1.05800955e-05 -1.96133951e-05 -1.66285135e-05 -1.64980938e-05
      -3.39091252e-06 0. 0. 0. 0. 0. 0. 0. 0. 0. 0. 0. 1.77216998e-06
      1.13137212e-05 1.42028497e-07 -3.38813179e-21 7.45902798e-06 0. 0.
      0. 0. 0. 0. 0. 0. 0. 0. 0. 0. 0. 0. 0. -1.15872654e-08
      -5.06386050e-06 -1.66455884e-05 -1.95771663e-05 -1.10899355e-05
      -1.96133951e-05 -1.65633028e-05 -1.64980938e-05 -6.26014617e-06 0.
      0. 0. 0. 0. 0. 0. 0. 0. 0. 0. 1.77216998e-06 1.08691802e-05
      8.05588627e-08 1.65651617e-08 7.47061540e-06 -4.97789543e-09 0. 0.
      0. 0. 0. 0. 0. 0. 0. 0. 0. 0. 0. 0. -5.33037934e-08
      -5.12909173e-06 -1.66495411e-05 -1.95771663e-05 -1.11670734e-05
      -1.95064695e-05 -1.64980938e-05 -1.65633028e-05 -4.82552923e-06 0.
      0. 0. 0. 0. 0. 0. 0. 0. 6.94968616e-09 6.94968616e-09
      1.76522030e-06 1.33031199e-05 -1.16329893e-07 4.30861142e-08
      7.58419446e-06 -5.26882218e-08 0. 0. 0. 0. 0. 0. 0. 0. 0. 0. 0. 0.
      0. 0. -6.52313759e-08 -5.11123062e-06 -1.68915121e-05
      -1.97075860e-05 -1.11018417e-05 -1.94293534e-05 -1.65633028e-05
      -1.64328831e-05 -6.52098535e-08 0. 0. 0. 0. 0. 0. 0. 0. 0.
      6.94968616e-09 1.38993723e-08 1.75132095e-06 8.59068314e-06
      2.40895872e-07 1.69054779e-08 8.58752264e-06 -1.65651617e-08 0. 0.
      0. 0. 0. 0. 0. 0. 0. 0. 0. 0. 0. 0. -1.18535169e-07
      -5.11089002e-06 -1.68862589e-05 -1.96844121e-05 -1.10902547e-05
      -1.94293534e-05 -1.66285135e-05 -1.66285135e-05 0. 0. 0. 0. 0. 0.
      0. 0. 0. 0. 6.94968616e-09 0. 1.75827063e-06 8.62931847e-06
      -1.24557829e-07 3.51021114e-08 1.00847610e-05 -1.62248455e-08 0.
      0. 0. 0. 0. 0. 0. 0. 0. 0. 0. 0. 0. 0. -1.15872654e-08
      -5.14101930e-06 -1.69276354e-05 -1.97075860e-05 -1.11554855e-05
      -1.94180848e-05 -1.64980938e-05 -1.65633028e-05 -1.30419707e-07 0.
      0. 0. 0. 0. 0. 0. 0. 0. 0. 6.94968616e-09 1.75827063e-06
      3.41045256e-06 -1.31529035e-07 1.65651617e-08 8.24514154e-06
      -4.63757921e-09 0. 0. 0. 0. 0. 0. 0. 0. 0. 0. 0. 0. 0. 0.
      -1.18194855e-07 -1.10029468e-05 -1.66661011e-05 -1.96423771e-05
      -1.11551453e-05 -1.94296717e-05 -1.65633028e-05 -1.65633028e-05
      -6.52098535e-08 0. 0. 0. 0. 0. 0. 0. 0. 0. 6.94968616e-09
      1.38993723e-08 1.75827063e-06 1.68855149e-06 1.54773616e-08
      2.81524262e-08 6.79880804e-06 -9.61547464e-09 0. 0. 0. 0. 0. 0. 0.
      0. 0. 0. 0. 0. 0. 0. -6.48910614e-08 -1.41941600e-05
      -1.65154652e-05 -1.95887533e-05 -1.11667323e-05 -1.94945624e-05
      -1.66285135e-05 -1.65633028e-05 -6.52098535e-08 0. 0. 0. 0. 0. 0.
      0. 0. 0. 6.94968616e-09 6.94968616e-09 1.76522030e-06
      1.67696419e-06 1.54773616e-08 3.97396924e-08 6.84516181e-06
      -3.31303234e-08 0. 0. 0. 0. 0. 0. 0. 0. 0. 0. 0. 0. 0. 0.
      -1.15872654e-08 -1.35858536e-05 -1.66336613e-05 -1.96539640e-05
      -1.11253567e-05 -1.86026627e-05 -1.66285135e-05 -1.65633028e-05
      -2.02150545e-06 0. 0. 0. 0. 0. 0. 0. 0. 0. 0. 6.94968616e-09
      1.76522030e-06 1.69998884e-06 -5.82601700e-08 1.42530538e-08
      7.25101654e-06 -3.27900054e-08 0. 0. 0. 0. 0. 0. 0. 0. 0. 0. 0. 0.
      0. 0. 0. -1.35865339e-05 -1.65800175e-05 -1.96304482e-05
      -1.12438483e-05 -1.70148887e-05 -1.66285135e-05 -1.64980938e-05
      -6.26014617e-06 0. 0. 0. 0. 0. 0. 0. 0. 0. 6.94968616e-09
      6.94968616e-09 1.76522030e-06 2.75377715e-06 -5.51790578e-08
      -3.38813179e-21 9.30371516e-06 -4.63757921e-09 0. 0. 0. 0. 0. 0.
      0. 0. 0. 0. 0. 0. 0. 0. -3.51021114e-08 -1.36275703e-05
      -1.65154652e-05 -1.95771663e-05 -1.11670734e-05 -1.95597731e-05
      -1.65633028e-05 -1.64328831e-05 -6.26014617e-06 0. 0. 0. 0. 0. 0.
      0. 0. 0. 1.38993723e-08 0. 1.76522030e-06 8.67588005e-06
      -1.34610147e-07 -1.59209236e-07 1.34958591e-05 4.97789543e-09 0.
      0. 0. 0. 0. 0. 0. 0. 0. 0. 0. 0. 0. 0. 0. -1.35924674e-05
      -1.65922847e-05 -1.91573617e-05 -1.11134286e-05 -1.95713601e-05
      -1.66285135e-05 -1.65633028e-05 -6.19493630e-06 0. 0. 0. 0. 0. 0.
      0. 0. 0. 1.38993723e-08 0. 1.76522030e-06 8.61419812e-06
      -1.96291737e-07 2.00607460e-07 1.42113295e-05 5.82816924e-08 0. 0.
      0. 0. 0. 0. 0. 0. 0. 0. 0. 0. 0. 0. -5.33037934e-08
      -1.34441434e-05 -1.66340014e-05 -1.92950774e-05 -1.11134286e-05
      -1.96779674e-05 -1.66285135e-05 -1.66285135e-05 -6.19493630e-06 0.
      0. 0. 0. 0. 0. 0. 0. 0. 6.94968616e-09 6.94968616e-09
      1.31349066e-06 8.48407581e-06 -7.32688648e-08 2.60839414e-07
      1.39533968e-05 -4.17165289e-08 0. 0. 0. 0. 0. 0. 0. 0. 0. 0. 0. 0.
      0. 0. -6.48910614e-08 -1.34557313e-05 -1.65806978e-05
      -1.93364540e-05 -1.12200369e-05 -1.94942440e-05 -1.66285135e-05
      -1.66285135e-05 -6.26014617e-06 0. 0. 0. 0. 0. 0. 0. 0. 0.
      6.94968616e-09 6.94968616e-09 1.09805035e-06 8.53385154e-06
      1.54558411e-08 8.90434961e-08 1.79712770e-05 1.19060610e-08 0. 0.
      0. 0. 0. 0. 0. 0. 0. 0. 0. 0. 0. 0. -1.15872654e-08
      -1.02575032e-05 -1.67313319e-05 -1.93569867e-05 -1.12200369e-05
      -2.01685234e-05 -1.66285135e-05 -1.66285135e-05 -6.26014617e-06 0.
      0. 0. 0. 0. 0. 0. 0. 0. 2.08490576e-08 6.94968616e-09
      1.09805035e-06 5.87586692e-06 6.87596327e-08 7.29000238e-09
      2.60322049e-05 -2.35148470e-08 0. 0. 0. 0. 0. 0. 0. 0. 0. 0. 0. 0.
      0. 0. 0. -5.12875158e-06 -1.69630766e-05 -1.95235225e-05
      -1.09949151e-05 -2.14678457e-05 -1.66285135e-05 -1.66285135e-05
      -6.26014617e-06 0. 0. 0. 0. 0. 0. 0. 0. 0. 1.38993723e-08 0.
      1.10500014e-06 1.70306998e-06 3.50910727e-06 1.46908644e-06
      3.19989158e-05 -4.00939172e-07 0. 0. 0. 0. 0. 0. 0. 0. 0. 0. 0. 0.
      0. 0. -6.48910614e-08 -5.07544792e-06 -1.68865990e-05
      -1.95413832e-05 -1.09710600e-05 -2.14559386e-05 -1.66285135e-05
      -1.66285135e-05 -6.19493630e-06 0. 0. 0. 0. 0. 0. 0. 0. 0.
      6.94968616e-09 0. 1.10500014e-06 1.64980929e-06 1.49459984e-05
      1.52899120e-05 3.17800877e-05 1.00295495e-07 0. 0. 0. 0. 0. 0. 0.
      0. 0. 0. 0. 0. 0. 0. -1.15872654e-08 -5.09862230e-06
      -1.66154587e-05 -1.96006604e-05 -1.10895735e-05 -2.14678457e-05
      -1.66285135e-05 -1.66285135e-05 -6.19493630e-06 0. 0. 0. 0. 0. 0.
      0. 0. 0. 6.94968616e-09 0. 1.09805035e-06 1.91515801e-06
      1.89103721e-05 1.64239409e-05 1.67442449e-05 -1.30100915e-07 0. 0.
      0. 0. 0. 0. 0. 0. 0. 0. 0. 0. 0. 0. -1.06607587e-07
      -5.19364266e-06 -1.65621550e-05 -1.95235225e-05 -1.10895953e-05
      -2.14559386e-05 -1.66285135e-05 -1.66285135e-05 -6.26014617e-06 0.
      0. 0. 0. 0. 0. 0. 0. 0. 0. 1.38993723e-08 1.10500014e-06
      1.46638297e-06 1.92441021e-05 2.49968834e-05 1.26149698e-05
      1.04954594e-07 0. 0. 0. 0. 0. 0. 0. 0. 0. 0. 0. 0. 0. 0.
      -5.33037934e-08 -5.12875158e-06 -1.66038717e-05 -1.95887533e-05
      -1.63372006e-05 -2.02337324e-05 -1.66285135e-05 -1.66285135e-05
      -6.26014617e-06 0. 0. 0. 0. 0. 0. 0. 0. 0. 0. 6.94968616e-09
      1.10500014e-06 1.61468563e-06 2.67894648e-05 3.28115202e-05
      1.29092841e-05 4.66729055e-08 0. 0. 0. 0. 0. 0. 0. 0. 0. 0. 0. 0.
      0. 0. 0. -5.06386050e-06 -1.65806978e-05 -1.95887533e-05
      -1.96006604e-05 -1.95180564e-05 -1.66285135e-05 -1.66285135e-05
      -6.26014617e-06 0. 0. 0. 0. 0. 0. 0. 0. 0. 0. 0. 1.10500014e-06
      1.88373394e-06 3.22745473e-05 3.57251956e-05 8.91717355e-06
      5.68320537e-08 0. 0. 0. 0. 0. 0. 0. 0. 0. 0. 0. 0. 0. 0. 0.
      -5.06386050e-06 -1.65806978e-05 -1.59107913e-05 -1.69768682e-05
      -1.96365690e-05 -1.66285135e-05 -1.66285135e-05 -6.19493630e-06 0.
      0. 0. 0. 0. 0. 0. 0. 0. 6.94968616e-09 0. 7.71415159e-07
      1.89532113e-06 2.89481632e-05 3.34251636e-05 8.96086902e-08
      1.25123023e-07 0. 0. 0. 0. 0. 0. 0. 0. 0. 0. 0. 0. 0. 0. 0.
      -5.17046828e-06 -1.65273941e-05 -7.70200768e-06 -1.10482188e-05
      -1.97431782e-05 -1.66285135e-05 -1.66285135e-05 -6.19493630e-06 0.
      0. 0. 0. 0. 0. 0. 0. 0. 2.08490576e-08 6.94968616e-09
      6.94968616e-09 1.80317511e-06 1.66769642e-05 1.98594335e-05
      3.79547842e-08 1.11223649e-07 0. 0. 0. 0. 0. 0. 0. 0. 0. 0. 0. 0.
      0. 0. -5.33037934e-08 -5.11716416e-06 -1.65806978e-05
      -7.70200768e-06 -1.10601468e-05 -1.95832654e-05 -1.66285135e-05
      -1.66285135e-05 -6.26014617e-06 0. 0. 0. 0. 0. 0. 0. 0. 0.
      2.08490576e-08 2.77987446e-08 0. 1.96117162e-06 1.58737612e-06
      3.10433347e-06 2.46302449e-07 2.08490576e-08 0. 0. 0. 0. 0. 0. 0.
      0. 0. 0. 0. 0. 0. 0. -5.33037934e-08 -1.22598731e-05
      -1.65273941e-05 -1.77231213e-05 -1.10482188e-05 -1.95832654e-05
      -1.66285135e-05 -1.66285135e-05 -6.19493630e-06 0. 0. 0. 0. 0. 0.
      0. 0. 0. 0. 6.94968616e-09 6.94968616e-09 8.10107167e-07
      1.83324278e-06 6.13412823e-08 1.23151224e-07 1.30100915e-07 0. 0.
      0. 0. 0. 0. 0. 0. 0. 0. 0. 0. 0. 0. 0. -1.35924674e-05
      -1.65806978e-05 -1.95354496e-05 -1.10601468e-05 -1.95832654e-05
      -1.66285135e-05 -1.66285135e-05 -6.19493630e-06 0. 0. 0. 0. 0. 0.
      0. 0. 0. 0. 1.38993723e-08 0. 5.28530563e-07 8.02746001e-07
      3.49907509e-07 -1.19275816e-08 5.68320537e-08 0. 0. 0. 0. 0. 0. 0.
      0. 0. 0. 0. 0. 0. 0. -1.06607587e-07 -1.35924674e-05
      -1.65806978e-05 -1.95354496e-05 -1.11015224e-05 -1.96365690e-05
      -1.66285135e-05 -1.66285135e-05 -6.26014617e-06 0. 0. 0. 0. 0. 0.
      0. 0. 0. 0. 6.94968616e-09 6.94968616e-09 1.79983289e-07
      1.25591683e-07 3.37979913e-07 1.30100915e-07 4.49044713e-08 0. 0.
      0. 0. 0. 0. 0. 0. 0. 0. 0. 0. 0. 0. -1.06607587e-07
      -1.35391638e-05 -1.65806978e-05 -1.95887533e-05 -1.10482188e-05
      -1.97431782e-05 -1.66285135e-05 -1.66285135e-05 -6.26014617e-06 0.
      0. 0. 0. 0. 0. 0. 0. 0. 1.38993723e-08 0. 1.38993723e-08
      1.18173332e-07 5.63633868e-08 3.74861173e-08 2.78610429e-07
      3.29768888e-08 0. 0. 0. 0. 0. 0. 0. 0. 0. 0. 0. 0. 0. 0. 0.
      -1.34858601e-05 -1.65806978e-05 -1.95887533e-05 -1.10601468e-05
      -1.97964819e-05 -1.66285135e-05 -1.66285135e-05 -6.26014617e-06 0.
      0. 0. 0. 0. 0. 0. 0. 0. 3.47484317e-08 6.94968616e-09
      6.94968616e-09 2.84056995e-07 1.84023847e-07 9.92960665e-08
      7.57093233e-08 1.97179051e-09 0. 0. 0. 0. 0. 0. 0. 0. 0. 0. 0. 0.
      0. 0. -1.06607587e-07 -1.29528225e-05 -1.64740904e-05
      -1.94821459e-05 -1.10482188e-05 -1.88007471e-05 -1.66285135e-05
      -1.66285135e-05 -7.04266449e-06 0. 0. 0. 0. 0. 0. 0. 0. 0. 0. 0.
      6.94968616e-09 8.02185482e-08 -2.38551632e-08 0. 0. 0. 0. 0. 0. 0.
      0. 0. 0. 0. 0. 0. 0. 0. 0. 0. 0. -5.78032450e-06 -1.65687688e-05
      -1.96423771e-05 -1.10253850e-05 -9.94449692e-06 -1.66285135e-05
      -1.65633028e-05 -1.57155755e-05 0. 0. 0. 0. 0. 0. 0. 0. 0. 0. 0.
      0. 0. 0. 0. 0. 0. 0. 0. 0. 0. 0. 0. 0. 0. 0. 0. 0. 0. 0. 0. 0.
      -5.14033900e-06 -1.66270456e-05 -1.95771663e-05 -1.11554855e-05
      -9.13844178e-06 -1.64980938e-05 -1.66285135e-05 -8.67291055e-06 0.
      0. 0. 0. 0. 0. 0. 0. 0. 0. 0. 0. 0. 0. 0. 0. 0. 0. 0. 0. 0. 0. 0.
      0. 0. 0. 0. 0. 0. 0. 0. -1.19275816e-08 -5.15260672e-06
      -1.68356164e-05 -1.96069341e-05 -1.10783485e-05 -9.21523952e-06
      -1.65633028e-05 -1.66285135e-05 -6.19493630e-06 0. 0. 0. 0. 0. 0.
      0. 0. 0. 0. 0. 0. 0. 0. 0. 0. 0. 0. 0. 0. 0. 0. 0. 0. 0. 0. 0. 0.
      0. 0. 0. -2.35148470e-08 -5.15260672e-06 -1.67773396e-05
      -1.96069341e-05 -1.11435584e-05 -9.26854318e-06 -1.65633028e-05
      -1.65633028e-05 -6.19493630e-06 0. 0. 0. 0. 0. 0. 0. 0. 0. 0. 0.
      0. 0. 0. 0. 0. 0. 0. 0. 0. 0. 0. 0. 0. 0. 0. 0. 0. 0. 0. 0.
      -2.35148470e-08 -5.07544792e-06 -1.65565016e-05 -1.95533121e-05
      -1.11018417e-05 -9.20331149e-06 -1.65633028e-05 -1.65633028e-05
      -9.39021902e-06 0. 0. 0. 0. 0. 0. 0. 0. 0. 0. 0. 0. 0. 0. 0. 0. 0.
      0. 0. 0. 0. 0. 0. 0. 0. 0. 0. 0. 0. 0. 0. -4.73700119e-08
      -5.07544792e-06 -1.65684287e-05 -1.95291159e-05 -1.10902547e-05
      -9.22481377e-06 -1.65633028e-05 -1.66285135e-05 -1.49330572e-05 0.
      0. 0. 0. 0. 0. 0. 0. 0. 0. 0. 0. 0. 0. 0. 0. 0. 0. 0. 0. 0. 0. 0.
      0. 0. 0. 0. 0. 0. 0. 0. 0. -5.12875158e-06 -1.65806978e-05
      -1.97075860e-05 -1.11670734e-05 -8.09061567e-06 -1.64980938e-05
      -1.66285135e-05 -6.26014617e-06 0. 0. 0. 0. 0. 0. 0. 0. 0. 0. 0.
      0. 0. 0. 0. 0. 0. 0. 0. 0. 0. 0. 0. 0. 0. 0. 0. 0. 0. 0. 0.
      -1.19275816e-08 -5.07544792e-06 -1.65565016e-05 -1.97608679e-05
      -1.10899136e-05 -2.96255143e-06 -1.66285135e-05 -1.65633028e-05
      -6.26014617e-06 0. 0. 0. 0. 0. 0. 0. 0. 0. 0. 0. 0. 0. 0. 0. 0. 0.
      0. 0. 0. 0. 0. 0. 0. 0. 0. 0. 0. 0. 0. 0. 0. -5.07544792e-06
      -1.65803576e-05 -1.96304482e-05 -1.10899136e-05 -6.56500731e-07
      -6.52098561e-06 -6.52098561e-06 -6.26014617e-06 0. 0. 0. 0. 0. 0.
      0. 0. 0. 0. 0. 0. 0. 0. 0. 0. 0. 0. 0. 0. 0. 0. 0. 0. 0. 0. 0. 0.
      0. 0. 0. -6.52313759e-08 -5.12909173e-06 -1.65687688e-05
      -1.79777835e-05 -1.56740407e-05 -1.18194855e-07 -9.78147796e-07
      -9.78147796e-07 -2.86923364e-06 0. 0. 0. 0. 0. 0. 0. 0. 0. 0. 0.
      0. 0. 0. 0. 0. 0. 0. 0. 0. 0. 0. 0. 0. 0. 0. 0. 0. 0. 0. 0.
      -6.52313759e-08 -5.19432342e-06 -1.65687688e-05 -1.65568417e-05
      -1.83763823e-05 -1.18194855e-07 0. 0. 0. 0. 0. 0. 0. 0. 0. 0. 0.
      0. 0. 0. 0. 0. 0. 0. 0. 0. 0. 0. 0. 0. 0. 0. 0. 0. 0. 0. 0. 0. 0.
      0. -5.33037934e-08 -4.08687129e-06 -1.66220743e-05 -1.64621615e-05
      -1.54196005e-05 -7.68186439e-08 0. 0. 0. 0. 0. 0. 0. 0. 0. 0. 0.
      0. 0. 0. 0. 0. 0. 0. 0. 0. 0. 0. 0. 0. 0. 0. 0. 0. 0. 0. 0. 0. 0.
      0. -1.59911380e-07 -5.33037934e-08 -1.57159084e-05 -1.63671411e-05
      -1.07821706e-05 -2.73253420e-07 0. 0. 0. 0. 0. 0. 0. 0. 0. 0. 0.
      0. 0. 0. 0. 0. 0. 0. 0. 0. 0. 0. 0. 0. 0. 0. 0. 0. 0. 0. 0. 0. 0.
      0. -1.19275816e-08 -1.19275816e-08 -5.64149150e-06 -1.65449146e-05
      -3.74538922e-06 -1.80665836e-06 0. 0. 0. 0. 0. 0. 0. 0. 0. 0. 0.
      0. 0. 0. 0. 0. 0. 0. 0. 0. 0. 0. 0. 0. 0. 0. 0. 0. 0. 0. 0. 0. 0.
      0. -6.52313759e-08 -6.52313759e-08 -3.52126744e-06 -7.47699505e-06
      -3.10608402e-06 -5.06211563e-07 0. 0. 0. 0. 0. 0. 0. 0. 0. 0. 0.
      0. 0. 0. 0. 0. 0. 0. 0. 0. 0. 0. 0. 0. 0. 0. 0. 0. 0. 0. 0. 0. 0.
      0. -5.33037934e-08 -1.19275816e-08 -3.14814088e-06 -1.92674338e-06
      -1.24572159e-06 -1.30122444e-07 0. 0. 0. 0. 0. 0. 0. 0. 0. 0. 0.
      0. 0. 0. 0. 0. 0. 0. 0. 0. 0. 0. 0. 0. 0. 0. 0. 0. 0. 0. 0. 0. 0.
      0. -1.19275816e-08 -2.38551632e-08 -1.68738245e-06 -1.30122444e-07
      -7.68186439e-08 -7.68186439e-08 0. 0. 0. 0. 0. 0. 0. 0. 0. 0. 0.
      0. 0. 0. 0. 0. 0. 0. 0. 0. 0. 0. 0. 0. 0. 0. 0. 0. 0. 0. 0. 0. 0.
      0. -6.52313759e-08 -2.38551632e-08 -6.52313759e-08 -2.35148470e-08
      -1.15872654e-08 -3.51021114e-08 0. 0. 0. 0. 0. 0. 0. 0. 0. 0. 0.
      0. 0. 0. 0. 0. 0. 0. 0. 0. 0. 0. 0. 0. 0. 0. 0. 0. 0. 0. 0. 0. 0.
      0. -5.33037934e-08 -6.52313759e-08 -1.19275816e-08 -1.15872654e-08
      -1.15872654e-08 -7.68186439e-08 0. 0. 0. 0. 0. 0. 0. 0. 0. 0. 0.
      0. 0. 0. 0. 0. 0. 0. 0. 0. 0. 0. 0. 0. 0. 0. 0. 0. 0. 0. 0. 0. 0.
      0. 0. 0. 0. 0. 0. 0. 0. 0. 0. 0. 0. 0. 0. 0. 0. 0. 0. 0. 0. 0. 0.
      0. 0. 0. 0. 0. 0. 0. 0. 0. 0. 0. 0. 0. 0. 0. 0. 0. 0. 0. 0. 0. 0.
      0. 0. 0. 0. 0. 0. 0. 0. 0. 0. 0. 0. 0. 0. 0. 0. 0. 0. 0. 0. 0. 0.
      0. 0. 0. 0. 0. 0. 0. 0. 0. 0. 0. 0. 0. 0. 0. 0. 0. 0. 0. 0. 0. 0.
      0. 0. 0. 0. 0. 0. 0. 0. 0. 0. 0. 0. 0. 0. 0. 0. 0. 0. 0. 0. 0. 0.
      0. 0. 0. 0. 0. 0. 0. 0. 0. 0. 0. 0. 0. 0. 0. 0. 0. 0. 0. 0. 0. 0.
      0. 0. 0. 0. 0. 0. 0. 0. 0. 0. 0. 0. 0. 0. 0. 0. 0. 0. 0. 0. 0. 0.
      0. 0. 0. 0. 0. 0. 0. 0. 0. 0. 0. 0. 0. 0. 0. 0. 0. 0. 0. 0. 0. 0.
      0. 0. 0. 0. 0. 0. 0. 0. 0. 0. 0. 0. 0. 0. 0. 0. 0. 0. 0. 0. 0. 0.
      0. 0. 0. 0. 0. 0. 0. 0. 0. 0. 0. 0. 0. 0. 0. 0. 0. 0. 0. 0. 0. 0.
      0. 0. 0. 0. 0. 0. 0. 0. 0. 0. 0. 0. 0. 0. 0. 0. 0. 0. 0. 0. 0. 0.
      0. 0. 0. 0. 0. 0. 0. 0. 0. 0. 0. 0. 0. 0. 0. 0. 0. 0. 0. 0. 0. 0.</_>
    <_>
      0. -9.00803414e-08 0. 0. 0. 0. 0. 0. 0. -3.58069337e-06
      -5.74262140e-06 0. -2.25200854e-08 -2.16192802e-06 -5.69758140e-06
      -5.02197872e-06 -5.02197872e-06 -2.25200854e-08 0. -2.25200854e-08
      -4.50401707e-08 -3.58069337e-06 -5.46475825e-08 -4.50401707e-08 0.
      -2.25200854e-08 -2.25200854e-08 0. -4.50401707e-08 -2.25200854e-08
      -2.25200854e-08 0. 0. -9.00803414e-08 -2.25200854e-08
      -6.75602507e-08 -4.50401707e-08 -2.25200854e-08 -2.25200854e-08
      -2.25200854e-08 -6.75602507e-08 -4.50401707e-08 -2.25200854e-08 0.
      0. 0. 0. 0. 0. -5.24717962e-06 -5.69758140e-06 -4.41393649e-06
      -4.41393649e-06 -4.88685828e-06 -5.72010140e-06 -5.56246096e-06
      -5.49490051e-06 -1.64396613e-06 -4.41393649e-06 -5.63002118e-07
      -4.36889650e-06 -3.58069337e-06 -1.68570114e-06 -4.39141650e-06
      -3.87345472e-06 0. -2.76997048e-06 -5.85522230e-07 -5.63002118e-07
      -1.66648624e-06 -4.39141650e-06 -4.41393649e-06 -4.41393649e-06
      -2.25200854e-08 -4.50401707e-08 -2.25200854e-08 -2.25200854e-08 0.
      -2.25200854e-08 0. -4.50401707e-08 0. -4.50401707e-08 0. 0. 0. 0.
      0. 0. -2.20696825e-06 -4.39141650e-06 -2.67989003e-06
      -2.20696825e-06 -2.22948847e-06 -4.41393649e-06 -2.20696825e-06
      -5.26969961e-06 -2.13940802e-06 -2.22948847e-06 -2.70241003e-07
      -2.22618314e-06 -3.55817338e-06 -2.15862292e-06 -5.72010140e-06
      -4.99945872e-06 -2.20696825e-06 -4.90937828e-06 -3.73833404e-06
      -7.20642731e-07 -8.33243121e-07 -5.69758140e-06 -2.65737003e-06
      -5.29222007e-06 -4.50401707e-08 -2.25200854e-08 0. -4.50401707e-08
      -2.20696825e-06 -3.53565338e-06 -4.50401707e-08 -4.50401707e-08
      -2.25200854e-08 -4.50401707e-08 0. 0. 0. 0. 0. 0. -2.25200854e-08
      -1.93672736e-06 -4.05361533e-07 -2.25200854e-08 -4.50401707e-08
      -1.93672736e-06 0. -2.70241026e-06 -1.17104446e-06 -2.25200854e-08
      -2.25200854e-08 -3.21274989e-08 -1.92381458e-06 -1.22569202e-06
      -3.10777159e-06 -2.70241026e-06 -1.93672736e-06 -3.08525159e-06
      -3.04021137e-06 -2.67989003e-06 -1.66648624e-06 -3.08525159e-06
      -4.27881616e-07 -2.70241026e-06 -4.50401707e-08 -2.25200854e-08
      -4.50401707e-08 -4.50401707e-08 -1.93672736e-06 -3.10777159e-06
      -4.50401707e-08 -4.50401707e-08 -2.25200854e-08 -2.25200854e-08 0.
      0. 0. 0. 0. 0. -4.50401707e-08 -4.50401707e-08 -2.25200854e-08
      -2.25200854e-08 -4.50401707e-08 -2.25200854e-08 0. 0.
      -2.25200854e-08 -2.25200854e-08 -4.50401707e-08 -2.25200854e-08
      -4.17349142e-08 -6.75602507e-08 -2.25200854e-08 -2.25200854e-08
      -4.50401707e-08 -2.25200854e-08 -2.25200854e-08 -3.46809315e-06
      -2.49972936e-06 -2.25200854e-08 -6.75602507e-08 0. 0.
      -4.50401707e-08 -6.75602507e-08 -2.25200854e-08 -2.25200854e-08
      -4.50401707e-08 0. -2.25200854e-08 0. -2.25200854e-08 0. 0. 0. 0.
      0. 0. -2.25200854e-08 -4.50401707e-08 -2.25200854e-08
      -4.50401707e-08 -6.75602507e-08 -2.25200854e-08 -2.25200854e-08 0.
      -2.25200854e-08 -6.75602507e-08 -9.00803414e-08 -7.71676696e-08
      -1.92148288e-08 -9.60741442e-09 0. 0. -6.75602507e-08
      -4.50401707e-08 -4.50401707e-08 -6.75602507e-08 -6.75602507e-08
      -2.25200854e-08 0. -2.25200854e-08 -2.25200854e-08 0.
      -2.25200854e-08 0. -2.25200854e-08 0. -2.25200854e-08
      -9.00803414e-08 0. -6.75602507e-08 0. 0. 0. 0. 0. 0.
      -9.00803414e-08 -2.25200854e-08 -2.25200854e-08 0. -4.50401707e-08
      0. -9.00803414e-08 -4.50401707e-08 0. -2.25200854e-08
      -4.50401707e-08 0. -9.63824931e-08 -5.46475825e-08 0.
      -6.75602507e-08 -4.50401707e-08 -6.75602507e-08 -4.50401707e-08 0.
      -2.25200854e-08 -6.75602507e-08 0. -6.75602507e-08 -2.25200854e-08
      -6.75602507e-08 0. -4.50401707e-08 0. -4.50401707e-08 0.
      -2.25200854e-08 0. -2.25200854e-08 0. 0. 0. 0. 0. 0.
      -2.25200854e-08 0. 0. 0. -4.50401707e-08 -4.50401707e-08
      -2.25200854e-08 0. -4.50401707e-08 -6.75602507e-08 0.
      -3.21274989e-08 -5.46475825e-08 -4.17349142e-08 0. -2.25200854e-08
      0. -2.25200854e-08 0. -4.50401707e-08 -4.50401707e-08 0.
      -9.00803414e-08 -4.50401707e-08 -2.25200854e-08 0. -2.25200854e-08
      -4.50401707e-08 0. -2.25200854e-08 0. -2.25200854e-08
      -2.25200854e-08 -4.50401707e-08 0. 0. 0. 0. 0. 0. 0. 0.
      -4.50401707e-08 -2.25200854e-08 -2.25200854e-08 -2.25200854e-08
      -2.25200854e-08 -2.25200854e-08 -2.25200854e-08 -2.25200854e-08
      -4.50401707e-08 -1.51166932e-06 -2.25200854e-08 -9.60741442e-09 0.
      0. 0. -2.25200854e-08 -2.25200854e-08 -9.00803414e-08
      -2.25200854e-08 -2.25200854e-08 -4.50401707e-08 -2.25200854e-08
      -2.25200854e-08 -2.25200854e-08 0. -4.50401707e-08 -2.25200854e-08
      0. -2.25200854e-08 0. -2.25200854e-08 -2.25200854e-08 0. 0. 0. 0.
      0. 0. 0. 0. -2.25200854e-08 -3.66695581e-08 -4.42179626e-09
      -2.25200854e-08 -5.66387044e-08 -5.28818411e-09 -2.15076668e-09
      -8.29215367e-07 -1.36340668e-06 -2.30976161e-06 -1.31820684e-06
      -1.33024491e-06 -1.15288969e-06 -9.60741442e-09 -2.27102981e-09
      -2.25200854e-08 -4.17349142e-08 -4.50401707e-08 0. -2.25200854e-08
      0. 0. -2.25200854e-08 -2.25200854e-08 0. -2.25200854e-08
      -2.25200854e-08 0. 0. 0. 0. 0. 0. 0. 0. 0. 0. 0. 0. 0. 0.
      -3.23027507e-08 -5.40844702e-09 -2.47911149e-08 -3.85404171e-08
      -3.96867108e-08 -6.84894815e-07 -2.09680616e-06 -2.51453616e-06
      -2.45829460e-06 -2.47894377e-06 -2.57776196e-06 -2.26072007e-06
      -9.52120672e-07 -3.73762994e-08 -1.18784440e-08 -2.14858584e-08
      -2.34769786e-08 0. 0. 0. 0. 0. 0. 0. 0. 0. 0. 0. 0. 0. 0. 0. 0. 0.
      0. 0. 0. 0. 0. 0. -1.26877513e-08 -1.47359520e-08 -1.61405946e-08
      -2.27102981e-09 -1.02879184e-07 -2.13995327e-06 -3.17828039e-06
      -2.81619373e-06 -2.65259087e-06 -2.77981644e-06 -2.87689977e-06
      -2.53902704e-06 -2.46793184e-06 -2.68988458e-07 -2.80190378e-08 0.
      -3.53554235e-08 0. 0. 0. 0. 0. 0. 0. 0. 0. 0. 0. 0. 0. 0. 0. 0. 0.
      0. 0. 0. 0. 0. 0. -8.52430126e-09 -2.10286064e-08 -3.88173262e-08
      -6.90016151e-08 -5.04191291e-07 -3.29635714e-06 -3.70461703e-06
      -3.80617530e-06 -3.38404698e-06 -3.81318273e-06 -3.32077752e-06
      -2.87478497e-06 -2.53800545e-06 -1.08657559e-06 -1.15985346e-08
      -1.38695642e-08 0. 0. 0. 0. 0. 0. 0. 0. 0. 0. 0. 0. 0. 0. 0. 0. 0.
      0. 0. 0. 0. 0. 0. 0. -5.94188805e-08 -1.91005469e-08
      -1.25438362e-07 -8.17968555e-07 -3.01293312e-06 -3.80305437e-06
      -4.29461716e-06 -4.36247274e-06 -4.24022028e-06 -4.29978218e-06
      -4.25775897e-06 -4.20753531e-06 -3.00655256e-06 -2.40843679e-06
      -1.86915337e-08 -1.99112060e-09 -2.31970692e-08 0. 0. 0. 0. 0. 0.
      0. 0. 0. 0. 0. 0. 0. 0. 0. 0. 0. 0. 0. 0. 0. 0. 0. -3.40710429e-08
      -2.75201558e-07 -5.30138266e-07 -2.70917008e-06 -4.02755131e-06
      -4.23221672e-06 -4.31878652e-06 -4.33357036e-06 -4.34631511e-06
      -4.35304719e-06 -4.37341669e-06 -4.31446733e-06 -3.87037699e-06
      -2.62620324e-06 -1.38695642e-08 -1.38695642e-08 -4.24118980e-08 0.
      0. 0. 0. 0. 0. 0. 0. 0. 0. 0. 0. 0. 0. 0. 0. 0. 0. 0. 0. 0. 0. 0.
      -3.16140898e-07 -4.69974026e-07 -2.24934456e-06 -3.59414435e-06
      -4.29815418e-06 -5.62907553e-06 -7.85542670e-06 -7.42837210e-06
      -7.86503369e-06 -7.81800281e-06 -4.34990989e-06 -4.33915602e-06
      -4.11133124e-06 -3.36084440e-06 -9.45788713e-07 -9.60741442e-09
      -2.74592207e-08 0. 0. 0. 0. 0. 0. 0. 0. 0. 0. 0. 0. 0. 0. 0. 0. 0.
      0. 0. 0. 0. 0. 0. -5.09731706e-07 -1.78819164e-06 -3.44621594e-06
      -4.36727032e-06 -6.95856306e-06 -8.09354060e-06 -1.00077477e-05
      -9.62818103e-06 -1.00474908e-05 -1.00067127e-05 -6.94171058e-06
      -4.36796881e-06 -4.20911192e-06 -4.05416358e-06 -2.09991913e-06
      -1.10752403e-08 -6.25327123e-09 0. 0. 0. 0. 0. 0. 0. 0. 0. 0. 0.
      0. 0. 0. 0. 0. 0. 0. 0. 0. 0. 0. -2.15076668e-08 -6.21102686e-07
      -3.34057859e-06 -3.86270312e-06 -6.59474154e-06 -1.00339194e-05
      -1.00302677e-05 -9.98307678e-06 -9.96928793e-06 -1.00711186e-05
      -1.00322113e-05 -1.00051493e-05 -6.13297880e-06 -4.53685016e-06
      -4.34130698e-06 -3.00136162e-06 -7.62724596e-07 -1.61405946e-08 0.
      0. 0. 0. 0. 0. 0. 0. 0. 0. 0. 0. 0. 0. 0. 0. 0. 0. 0. 0. 0.
      -9.86650650e-10 -9.62778728e-08 -7.96094810e-07 -3.59798378e-06
      -5.19584864e-06 -1.00710158e-05 -1.00504685e-05 -1.00677398e-05
      -1.00307643e-05 -1.00291036e-05 -1.00731095e-05 -1.00708385e-05
      -1.00708385e-05 -1.00730067e-05 -5.80497408e-06 -4.34238018e-06
      -3.60357581e-06 -2.60475940e-06 -1.43542579e-07 0. 0. 0. 0. 0. 0.
      0. 0. 0. 0. 0. 0. 0. 0. 0. 0. 0. 0. 0. 0. -9.86650650e-10
      -2.74533374e-08 -1.93735374e-07 -8.02032503e-07 -3.95343932e-06
      -1.00749803e-05 -1.00772513e-05 -1.00794023e-05 -1.00676434e-05
      -1.00654934e-05 -1.00579164e-05 -1.00794023e-05 -1.00794023e-05
      -1.00771313e-05 -1.00794023e-05 -1.00794023e-05 -4.40434042e-06
      -4.03132617e-06 -3.45769240e-06 -8.26567543e-07 -8.80420981e-09
      -1.35896556e-08 -3.98224120e-09 0. 0. 0. 0. 0. 0. 0. 0. 0. 0. 0.
      0. 0. 0. 0. 0. 0. -9.86650650e-10 -2.35067361e-08 -3.09394409e-07
      -8.18173135e-07 -9.08253878e-06 -1.00675234e-05 -1.00772513e-05
      -1.00794023e-05 -1.00794023e-05 -1.00536145e-05 -1.00654934e-05
      -1.00697944e-05 -1.00771313e-05 -1.00748603e-05 -1.00343614e-05
      -1.00794023e-05 -9.17859870e-06 -4.23136362e-06 -3.53049450e-06
      -2.62926301e-06 -1.41494736e-08 -2.27102981e-09 -4.01773903e-08 0.
      0. 0. 0. 0. 0. 1.56911639e-09 6.27646557e-09 0. 0. 0. 0. 0. 0. 0.
      0. 0. 0. -1.97330130e-09 -3.39980573e-07 -4.77010963e-06
      -1.00291427e-05 -1.00547313e-05 -1.00751004e-05 -1.00772513e-05
      -1.00557654e-05 -1.00631014e-05 -1.00557654e-05 -1.00748603e-05
      -1.00794023e-05 -1.00748603e-05 -1.00568823e-05 -1.00794023e-05
      -1.00794023e-05 -6.68176517e-06 -3.84877194e-06 -3.04433593e-06
      -1.41494736e-08 -2.74592207e-08 -2.57480082e-08 0. 0. 0. 0. 0. 0.
      3.13823278e-09 3.13823278e-09 0. 0. 0. 0. 0. 0. 0. 0. 0.
      -2.25200854e-08 -2.35067361e-08 -7.01288570e-07 -6.55681242e-06
      -1.00407415e-05 -1.00676434e-05 -1.00772513e-05 -1.00772513e-05
      -1.00653724e-05 -1.00438865e-05 -1.00610714e-05 -1.00771313e-05
      -1.00771313e-05 -1.00771313e-05 -1.00568823e-05 -1.00568823e-05
      -1.00343614e-05 -9.01622025e-06 -4.06045683e-06 -3.33111825e-06
      -6.22618529e-07 -2.54680987e-08 -1.15985346e-08 0. 0. 0. 0. 0. 0.
      1.56911639e-09 4.70734918e-09 0. 0. 0. 0. 0. 0. 0. 0. 0.
      -2.25200854e-08 -2.35067361e-08 -2.95527025e-06 -6.57375631e-06
      -1.00300995e-05 -1.00524603e-05 -1.00772513e-05 -1.00772513e-05
      -1.00749803e-05 -1.00440075e-05 -1.00610714e-05 -1.00771313e-05
      -1.00748603e-05 -1.00794023e-05 -1.00568823e-05 -1.00568823e-05
      -1.00343614e-05 -1.00398747e-05 -4.17227420e-06 -3.56557325e-06
      -1.13295403e-06 -1.61405946e-08 -9.60741442e-09 0. 0. 0. 0. 0. 0.
      0. 4.70734918e-09 0. 0. 0. 0. 0. 0. 0. 0. 0. -2.25200854e-08
      -9.86650650e-10 -6.06205549e-06 -6.67997119e-06 -1.00364796e-05
      -1.00500683e-05 -1.00772513e-05 -1.00729494e-05 -1.00772513e-05
      -1.00749803e-05 -1.00557654e-05 -1.00675234e-05 -1.00748603e-05
      -1.00771313e-05 -1.00568823e-05 -1.00568823e-05 -1.00568823e-05
      -1.00163506e-05 -5.45218563e-06 -3.59337832e-06 -1.45960621e-06
      -1.81317148e-08 -1.18784440e-08 0. 0. 0. 0. 0. 0. 0. 0. 0. 0. 0.
      0. 0. 0. 0. 0. 0. -4.50401707e-08 -2.44933851e-08 -6.04052184e-06
      -7.03618980e-06 -1.00320904e-05 -1.00697944e-05 -1.00794023e-05
      -1.00772513e-05 -1.00749803e-05 -1.00727093e-05 -1.00611915e-05
      -1.00794023e-05 -1.00725892e-05 -1.00771313e-05 -1.00794023e-05
      -1.00794023e-05 -1.00343614e-05 -1.00284360e-05 -9.34462787e-06
      -3.57573299e-06 -2.62971957e-06 -3.20012781e-08 -2.80190378e-08 0.
      0. 0. 0. 0. 0. 1.56911639e-09 0. 0. 0. 0. 0. 0. 0. 0. 0. 0.
      -2.95995184e-09 -2.44933851e-08 -6.04052184e-06 -7.07429081e-06
      -1.00410216e-05 -1.00526195e-05 -1.00751004e-05 -1.00772513e-05
      -1.00580364e-05 -1.00697944e-05 -1.00629813e-05 -1.00675234e-05
      -1.00771313e-05 -1.00725892e-05 -1.00568823e-05 -1.00794023e-05
      -1.00568823e-05 -1.00454999e-05 -9.32811508e-06 -3.66951031e-06
      -2.64530036e-06 -1.15985346e-08 -1.27864510e-08 0. 0. 0. 0. 0. 0.
      1.56911639e-09 3.13823278e-09 0. 0. 0. 0. 0. 0. 0. 0. 0.
      -1.97330130e-09 -9.86650650e-10 -6.04052184e-06 -6.61770764e-06
      -9.98410269e-06 -1.00656525e-05 -1.00751004e-05 -1.00794023e-05
      -9.64597348e-06 -9.35052140e-06 -9.36304150e-06 -9.63428010e-06
      -1.00794023e-05 -1.00771313e-05 -1.00568823e-05 -1.00568823e-05
      -1.00794023e-05 -1.00711750e-05 -9.88537158e-06 -4.18974787e-06
      -3.04240370e-06 -1.18784440e-08 -2.34769786e-08 0. 0. 0. 0. 0. 0.
      0. 3.07546827e-07 7.45875450e-09 9.08389808e-09 -1.22542931e-09
      3.13823278e-09 0. 1.56911639e-09 0. 0. 0. -1.97330130e-09
      -9.86650650e-10 -6.04052184e-06 -6.46518583e-06 -1.00033649e-05
      -1.00772513e-05 -1.00749803e-05 -9.59695262e-06 -9.37378172e-06
      -7.35854655e-06 -7.52365895e-06 -7.35026970e-06 -8.57395298e-06
      -9.10994640e-06 -1.00771313e-05 -1.00601874e-05 -1.00655325e-05
      -1.00507668e-05 -1.00643865e-05 -4.32421530e-06 -3.43164788e-06
      -3.50755123e-08 -3.30843939e-08 0. 0. 0. 0. 1.70678227e-09
      1.70678227e-09 3.68525193e-08 4.37734542e-07 4.13592204e-07
      9.83363719e-08 1.11425189e-08 4.70734918e-09 1.56911639e-09
      3.13823278e-09 0. 0. 0. -9.86650650e-10 -9.86650650e-10
      -6.06304184e-06 -6.48794639e-06 -9.63110506e-06 -1.00666575e-05
      -9.67279720e-06 -8.28519660e-06 -7.72329440e-06 -6.09970903e-06
      -6.08727805e-06 -5.96865584e-06 -7.27532597e-06 -7.86406508e-06
      -1.00635416e-05 -1.00556454e-05 -1.00655325e-05 -1.00292509e-05
      -1.00537445e-05 -4.35069978e-06 -3.56790952e-06 -5.75955994e-08
      -8.14298176e-08 0. 0. 0. 3.41356454e-09 1.70678227e-09
      1.70678227e-09 1.13638833e-07 6.64634058e-07 1.51771474e-06
      4.12275512e-07 1.84396187e-09 3.13823278e-09 3.13823278e-09
      4.70734918e-09 0. 0. 0. -9.86650650e-10 -9.86650650e-10
      -6.06205549e-06 -6.52983135e-06 -8.64895082e-06 -9.78770004e-06
      -9.11919142e-06 -6.71653015e-06 -5.90089576e-06 -5.88260855e-06
      -5.66106564e-06 -5.87745399e-06 -6.68747316e-06 -6.91554260e-06
      -9.26324265e-06 -1.00609905e-05 -1.00589996e-05 -1.00302377e-05
      -1.00537445e-05 -5.91660273e-06 -3.56990063e-06 -3.63896504e-08
      -9.20714598e-08 0. 0. 0. 6.82712908e-09 3.41356454e-09
      1.70678227e-09 2.74856859e-07 1.02127876e-06 3.11282088e-06
      9.59766112e-07 -3.67454511e-09 1.56911639e-09 0. 3.13823278e-09 0.
      0. 0. -1.97330130e-09 -9.86650650e-10 -6.06106869e-06
      -6.58671615e-06 -7.44471072e-06 -8.90973661e-06 -8.55203325e-06
      -5.79853258e-06 -5.76063303e-06 -5.70510110e-06 -5.72408362e-06
      -5.75170588e-06 -6.24159611e-06 -6.47739171e-06 -7.36051516e-06
      -1.00439784e-05 -1.00663356e-05 -1.00547313e-05 -1.00515936e-05
      -9.40784412e-06 -3.54738063e-06 -2.84898022e-07 0. 0. 0. 0.
      1.70678227e-09 6.82712908e-09 1.70678227e-09 4.92056984e-07
      1.38494602e-06 3.90411424e-06 1.48262222e-06 2.20794600e-08 0. 0.
      1.56911639e-09 0. 0. 0. -9.86650650e-10 -1.97330130e-09
      -6.06304184e-06 -7.09052802e-06 -6.74700686e-06 -7.15672149e-06
      -6.19883622e-06 -5.73451825e-06 -5.72202725e-06 -5.72630734e-06
      -5.77006313e-06 -5.74576870e-06 -5.89770116e-06 -6.52347535e-06
      -6.62613138e-06 -1.00043308e-05 -1.00697944e-05 -1.00752777e-05
      -1.00794023e-05 -9.84432336e-06 -3.51888707e-06 -1.87453441e-06
      -2.01228350e-08 0. 0. 0. 1.02406936e-08 1.70678227e-09
      5.12034681e-09 4.27534474e-07 1.62931519e-06 8.58850217e-06
      2.21510481e-06 2.45378914e-07 3.13823278e-09 3.13823278e-09 0. 0.
      0. 0. -1.97330130e-09 -9.86650650e-10 -6.01260535e-06
      -6.64092431e-06 -6.05644527e-06 -6.21595609e-06 -5.80005735e-06
      -8.83532095e-07 -9.00475925e-07 -9.28244788e-07 -8.89863998e-07
      -9.24560254e-07 -5.79490688e-06 -6.24246513e-06 -6.56760767e-06
      -9.75174407e-06 -1.00652524e-05 -1.00333755e-05 -1.00292509e-05
      -9.81003723e-06 -3.53351106e-06 -2.65114090e-06 -1.18784440e-08 0.
      0. 0. 3.41356454e-09 3.41356454e-09 3.41356454e-09 6.25062569e-07
      2.29924035e-06 9.08998300e-06 3.35063555e-06 5.97378687e-07
      1.56911639e-09 1.56911639e-09 1.56911639e-09 0. 0. 0.
      -9.86650650e-10 0. -5.99323084e-06 -5.95588972e-06 -5.80483902e-06
      -5.83595784e-06 -1.77329366e-06 -4.70312891e-08 -3.53851810e-08
      -3.83629519e-08 -2.01050163e-08 -4.97841413e-08 -1.77357356e-06
      -6.05026753e-06 -6.57347618e-06 -7.93168147e-06 -1.00443267e-05
      -1.00312245e-05 -1.00302377e-05 -9.83685914e-06 -3.54538952e-06
      -2.80390259e-06 -5.69186120e-08 0. 0. 0. 1.70678227e-09
      1.70678227e-09 1.89452834e-07 6.24738789e-07 6.71956741e-06
      7.33026991e-06 3.36792777e-06 7.37169159e-07 1.56911639e-09 0.
      1.56911639e-09 0. 0. 0. 0. -1.97330130e-09 -5.85904627e-06
      -5.68374526e-06 -5.73483749e-06 -2.67437690e-06 -3.39412765e-08
      -2.67822351e-08 -3.93674213e-08 -7.25113267e-08 -1.48562149e-08
      -1.98644905e-08 -2.88854256e-08 -5.97568942e-06 -6.57375631e-06
      -7.10971926e-06 -1.00493917e-05 -1.00537445e-05 -1.00537445e-05
      -9.83470818e-06 -3.54084750e-06 -2.78166249e-06 -6.98312874e-08 0.
      0. 0. 0. 0. 2.71378383e-07 7.62862044e-07 9.21656920e-06
      5.97962708e-06 2.30051569e-06 5.03358251e-07 1.56911639e-09
      1.56911639e-09 1.56911639e-09 0. 0. 0. 0. -1.97330130e-09
      -5.74262140e-06 -5.74281466e-06 -4.36024584e-06 -2.76486229e-08
      -5.64613600e-08 -3.09063033e-08 -1.45763064e-08 -8.11320930e-08
      -4.40059438e-08 -3.62693875e-08 -4.69837147e-08 -4.60180445e-06
      -6.56414886e-06 -7.06604624e-06 -1.00493917e-05 -1.00537445e-05
      -1.00762645e-05 -9.93992944e-06 -4.37409062e-06 -2.76141350e-06
      -4.93023187e-08 0. 0. 0. 1.70678227e-09 1.70678227e-09
      2.71378383e-07 9.33178114e-07 9.76003230e-06 5.84818054e-06
      2.15348746e-06 7.01199667e-08 1.56911639e-09 1.56911639e-09
      1.56911639e-09 0. 0. 0. 0. -2.25200854e-08 -5.74262140e-06
      -5.72977206e-06 -1.67173505e-06 0. -4.14188728e-09 -2.44933851e-08
      -2.15076668e-09 -1.05940652e-08 -5.46000081e-08 -2.56575028e-08
      -5.79052646e-08 -1.88473132e-06 -6.43082330e-06 -7.05627917e-06
      -9.83308382e-06 -1.00504867e-05 -1.00752777e-05 -1.00739935e-05
      -5.68678843e-06 -2.82319616e-06 -1.58606852e-08 0. 0. 0.
      3.41356454e-09 0. 3.10634363e-07 8.98670862e-07 9.55167616e-06
      5.25902306e-06 5.44692330e-06 -6.84544261e-08 3.13823278e-09
      -3.98224120e-09 -4.22004209e-10 0. 0. 0. 0. -4.50401707e-08
      -5.74262140e-06 -5.29222007e-06 0. 0. 0. 0. 0. 0. 0.
      -4.50401707e-08 -9.86650650e-10 -1.16251897e-07 -6.07492029e-06
      -7.02240141e-06 -9.12799715e-06 -1.00727093e-05 -1.00739935e-05
      -1.00716024e-05 -5.66000654e-06 -2.88104707e-06 -1.99112060e-09 0.
      0. 0. 0. 0. 4.35229481e-07 5.56692669e-07 8.68048755e-06
      5.08006769e-06 5.28327291e-06 -1.32512071e-06 1.56911639e-09 0.
      -1.99112060e-09 0. 0. 0. -4.50401707e-08 -4.50401707e-08
      -5.74262140e-06 -4.50401700e-07 -2.25200854e-08 -4.50401707e-08 0.
      0. 0. 0. 0. -3.94660260e-09 -9.86650650e-10 -1.61292064e-07
      -6.09083008e-06 -6.99848624e-06 -9.08841321e-06 -1.00707357e-05
      -1.00754551e-05 -1.00718999e-05 -5.66000654e-06 -2.10057533e-06
      -3.11615516e-08 0. 0. 0. 0. 0. 4.31815920e-07 7.40666906e-07
      8.68562074e-06 1.17254194e-06 5.43200440e-06 -1.08787663e-06
      -1.99112060e-09 1.56911639e-09 1.14711218e-09 0. 0. 0.
      -2.25200854e-08 -2.25200854e-08 -1.32868502e-06 0. -4.50401707e-08
      0. 0. 0. 0. 0. 0. -6.85469033e-08 -4.60268197e-08 -4.61996983e-08
      -2.19919480e-06 -6.95571725e-06 -9.09878509e-06 -1.00717225e-05
      -1.00718426e-05 -1.00739935e-05 -5.68280620e-06 -2.01637977e-06
      -3.98224120e-09 0. 0. 0. 1.70678227e-09 6.82712908e-09
      4.33522700e-07 1.01544913e-06 3.66358950e-06 7.48490425e-09
      5.48154503e-06 -1.05844651e-06 3.13823278e-09 -4.22004209e-10
      -8.44008419e-10 0. 0. 0. -2.25200854e-08 0. 0. -6.75602507e-08
      -2.25200854e-08 0. 0. 0. 0. 0. 0. -4.50401707e-08 -2.35067361e-08
      -2.35067361e-08 -4.12516010e-06 -6.70253894e-06 -9.67562028e-06
      -1.00718426e-05 -1.00685847e-05 -1.00741136e-05 -5.69213398e-06
      -2.47733965e-06 -2.14858584e-08 0. 0. 0. 1.70678227e-09
      3.41356454e-09 4.33522700e-07 9.79316383e-07 8.17419902e-07
      -1.38571155e-08 2.81241660e-06 -9.33137983e-07 -2.83512902e-09
      -4.22004209e-10 -8.44008419e-10 0. 0. 0. -4.50401707e-08
      -2.25200854e-08 -2.25200854e-08 -4.50401707e-08 0. 0. 0. 0. 0. 0.
      0. -9.86650650e-10 -2.35067361e-08 -4.60268197e-08 -6.05973673e-06
      -6.52987046e-06 -1.00333655e-05 -1.00730067e-05 -1.00730067e-05
      -1.00730067e-05 -5.68479754e-06 -2.92492768e-06 -2.14858584e-08 0.
      0. 0. 1.70678227e-09 0. 4.33522700e-07 1.72132263e-06
      2.47974352e-08 4.05529050e-08 -2.36904938e-07 -1.02239721e-06
      -7.96448241e-09 -1.99112060e-09 1.14711218e-09 0. 0. 0.
      -4.50401707e-08 -4.50401707e-08 -4.50401707e-08 -2.25200854e-08
      -2.25200854e-08 0. 0. 0. 0. 0. 0. -1.97330130e-09 -2.25200854e-08
      -2.44933851e-08 -4.52103450e-06 -6.51480696e-06 -1.00277894e-05
      -1.00741709e-05 -1.00738735e-05 -1.00730067e-05 -5.66454855e-06
      -3.00668466e-06 -1.92148288e-08 0. 0. 0. 0. 0. 4.31815920e-07
      2.63911170e-06 9.68806457e-09 8.84730156e-08 -2.08442088e-07
      -1.72953673e-06 1.56911639e-09 -4.40424541e-09 -2.83512902e-09 0.
      0. 0. -4.50401707e-08 -2.25200854e-08 0. -4.50401707e-08
      -2.25200854e-08 0. 0. 0. 0. 0. 0. 0. -2.35067361e-08
      -9.86650650e-10 -1.02080367e-06 -6.54796895e-06 -1.00007273e-05
      -1.00741136e-05 -1.00681673e-05 -9.99662279e-06 -5.67188499e-06
      -2.76647870e-06 -4.26918056e-08 0. 0. 0. 0. 0. 4.31815920e-07
      2.68085478e-06 3.75179852e-08 5.03577731e-08 -2.29392356e-07
      -1.98404086e-06 -4.22004209e-10 7.84558196e-09 7.25108029e-10 0.
      0. 0. -2.25200854e-08 -2.25200854e-08 0. -2.25200854e-08
      -2.25200854e-08 -2.25200854e-08 0. 0. 0. 0. 0. -6.75602507e-08 0.
      -2.44933851e-08 -8.14190855e-07 -6.49332151e-06 -1.00556454e-05
      -1.00741136e-05 -1.00751004e-05 -9.60408215e-06 -5.68560063e-06
      -2.76874971e-06 -2.14858584e-08 0. 0. 0. 0. 0. 4.31815920e-07
      3.53582573e-06 3.29354037e-08 3.53027296e-08 -2.32530581e-07
      -1.49979621e-06 4.70734918e-09 1.56911639e-09 -1.99112060e-09 0.
      0. 0. -4.50401707e-08 -2.25200854e-08 -2.25200854e-08 0.
      -6.75602507e-08 -2.25200854e-08 0. 0. 0. 0. 0. -9.86650650e-10
      -4.60268197e-08 -2.35067361e-08 -1.44021124e-06 -6.54051246e-06
      -1.00376674e-05 -1.00730067e-05 -1.00762645e-05 -9.59296813e-06
      -5.65773553e-06 -2.75687148e-06 0. 0. 0. 0. 1.02406936e-08 0.
      4.33522700e-07 1.34353377e-06 -7.44647588e-09 4.73497597e-09
      -2.37820245e-07 -1.52908160e-06 -8.83460682e-09 2.27996688e-09
      -5.50130844e-11 0. 0. 0. -2.25200854e-08 0. 0. 0. -2.25200854e-08
      0. 0. 0. 0. 0. 0. -9.86650650e-10 -2.35067361e-08 -8.76390231e-08
      -5.01527938e-06 -8.01259739e-06 -1.00579164e-05 -1.00537445e-05
      -1.00731268e-05 -9.52896335e-06 -5.67291909e-06 -2.40472286e-06
      -1.35896556e-08 0. 0. 0. 5.12034681e-09 0. 4.32536041e-07
      1.03789307e-06 3.43204221e-08 -3.05101268e-18 -2.46707515e-07
      -1.47551668e-06 -1.01890647e-08 2.10617279e-09 -1.67145664e-09 0.
      0. 0. 0. 0. 0. 0. 0. 0. 0. 0. 0. 0. 0. -4.30153335e-09
      -2.56575028e-08 -9.80333468e-08 -6.55426174e-06 -7.52461028e-06
      -1.00632615e-05 -1.00312245e-05 -1.00290736e-05 -9.41382223e-06
      -5.67519010e-06 -2.07950347e-06 -5.55555921e-08 0. 0. 0.
      -1.25316968e-09 7.20131621e-10 4.30829260e-07 8.55707810e-07
      -7.35867323e-09 -3.05101268e-18 -2.44556759e-07 -1.40340308e-06
      -8.67496119e-09 -2.42043874e-09 -1.67145664e-09 0. 0. 0. 0. 0. 0.
      0. 0. 0. 0. 0. 0. 0. 0. -2.89723854e-08 -2.68216187e-08
      -1.57232378e-07 -6.55653275e-06 -6.54465430e-06 -1.00632615e-05
      -1.00087045e-05 -1.00300604e-05 -9.33471802e-06 -4.85155442e-06
      -1.89147818e-06 -7.60845538e-08 0. 0. 0. -2.23982033e-09
      7.20131621e-10 4.30829260e-07 5.23037329e-07 -2.55829811e-08
      2.46708520e-08 -2.40255218e-07 -1.42592319e-06 4.66275552e-09
      -1.64252647e-08 5.78519099e-09 0. 0. 0. 0. 0. 0. 0. 0. 0. 0. 0. 0.
      0. 0. -2.25200854e-08 -2.46708520e-08 -3.20623684e-07
      -6.55653275e-06 -6.55227041e-06 -1.00708776e-05 -1.00323887e-05
      -1.00719626e-05 -9.35033131e-06 -3.92893799e-06 -1.49885989e-06
      -4.70312891e-08 0. 0. 0. 1.70678227e-09 -9.86650650e-10
      4.29842601e-07 8.32857161e-09 -1.88928304e-08 6.97110210e-08
      2.39774742e-08 -1.38088296e-06 -3.40637101e-08 5.67273339e-10
      6.51437526e-09 0. 0. 0. 0. 0. 0. 0. 0. 0. 0. 0. 0. 0. 0.
      -2.46708520e-08 -2.99590361e-08 -5.21505683e-07 -6.55227041e-06
      -6.58354156e-06 -1.00705975e-05 -1.00527577e-05 -1.00527577e-05
      -9.35033586e-06 -5.13592704e-06 -3.48715673e-07 -3.61097392e-08 0.
      0. 0. 0. -2.66519029e-10 4.31815920e-07 -5.37013705e-07
      -3.51068330e-08 2.68216187e-08 3.03736738e-06 -1.42377235e-06
      -3.62051395e-07 3.37579475e-09 -1.27618351e-08 0. 0. 0. 0. 0. 0.
      0. 0. 0. 0. 0. 0. 0. 0. -5.11071852e-09 0. -4.78438835e-07
      -6.55681242e-06 -7.01248609e-06 -1.00748603e-05 -1.00719626e-05
      -1.00290736e-05 -9.30628266e-06 -3.34784136e-06 -3.73506793e-07
      -2.12059490e-08 0. 0. 0. 3.41356454e-09 2.42691378e-09
      4.32536041e-07 1.14187469e-06 -3.34656605e-08 2.89723854e-08
      3.29324735e-06 -1.56040903e-06 -4.26247112e-07 1.54823923e-08
      2.13699245e-08 0. 0. 0. 0. 0. 0. 0. 0. 0. 0. 0. 0. 0. 0.
      -2.56575028e-08 -1.71686381e-07 -7.15352314e-07 -6.61103741e-06
      -7.45369653e-06 -1.00728685e-05 -1.00537445e-05 -1.00497982e-05
      -9.32566491e-06 -3.19617425e-06 -4.00289025e-07 -5.91896416e-08 0.
      0. 0. -1.97330130e-09 -2.23982033e-09 4.32536041e-07
      6.76859656e-07 -1.37655922e-08 4.93417041e-08 1.14953775e-06
      -1.60772595e-06 -1.82994555e-07 5.13977261e-09 1.40656082e-08 0.
      0. 0. 0. 0. 0. 0. 0. 0. 0. 0. 0. 0. 0. -2.25200854e-08
      -2.38774049e-07 -8.18437400e-07 -6.93579477e-06 -7.60362673e-06
      -1.00632615e-05 -1.00312245e-05 -1.00721409e-05 -9.27187011e-06
      -3.19110882e-06 -3.43370402e-07 -4.95822299e-08 0. 0. 0.
      -2.95995184e-09 -2.66519029e-10 4.32536041e-07 1.18841490e-06
      5.91689808e-09 2.25200854e-08 -2.24187445e-07 -1.60772595e-06
      -1.78911890e-08 -6.29265395e-09 4.20229851e-09 0. 0. 0. 0. 0. 0.
      0. 0. 0. 0. 0. 0. 0. 0. 0. -4.31299412e-07 -1.78778771e-06
      -7.12911196e-06 -8.60747605e-06 -1.00632615e-05 -1.00537445e-05
      -1.00377802e-05 -9.26643042e-06 -3.08891254e-06 -1.73507402e-07
      -2.27102981e-09 0. 0. 0. -2.66519029e-10 1.70678227e-09
      3.60510541e-07 6.36762422e-07 4.00284641e-08 -3.05101268e-18
      -2.97910987e-07 -1.58636999e-06 -7.55820054e-07 -4.60475658e-09
      1.94652672e-09 0. 0. 0. 0. 0. 0. 0. 0. 0. 0. 0. 0. -2.25200854e-08
      -3.13741721e-09 -9.27497439e-08 -6.78460140e-07 -2.95668133e-06
      -5.56475243e-06 -9.85644056e-06 -1.00527877e-05 -1.00514735e-05
      -9.99419353e-06 -9.25997756e-06 -2.94602773e-06 -3.63896504e-08
      -1.15985346e-08 0. 0. 0. 7.20131621e-10 -2.15076668e-09
      1.70271022e-07 -5.04843683e-07 5.01906321e-08 -1.55884056e-10
      -4.30502581e-07 -1.61558967e-06 -2.33456649e-06 -4.22004209e-10
      3.11064285e-09 0. 0. 0. 0. 0. 0. 0. 0. 0. 0. 0. -3.13741721e-09
      -6.85469033e-08 -3.09456851e-08 -2.59234611e-07 -8.11480277e-07
      -3.52051052e-06 -2.90923299e-06 -1.00742736e-05 -1.00262632e-05
      -1.00717225e-05 -9.92409332e-06 -9.28336431e-06 -2.66766301e-06
      -2.31970692e-08 -1.99112060e-09 0. 0. 0. -1.83481985e-09
      -3.71906750e-09 -2.78055268e-08 -7.38867584e-07 9.71874048e-09
      -1.32820546e-10 -4.31066809e-07 -1.80095219e-06 -1.77231152e-06
      -1.35710208e-08 -5.42240564e-09 0. 0. 0. 0. 0. 0. 0. 0. 0. 0. 0.
      -2.46708520e-08 -5.32883035e-08 -4.93417041e-08 -2.96838664e-07
      -8.59628130e-07 -6.50962147e-06 -7.42806651e-06 -1.00189764e-05
      -1.00539119e-05 -1.00075877e-05 -9.73487931e-06 -9.25684071e-06
      -1.13068302e-06 -1.55807758e-08 -2.88222424e-08 0. 0. 0.
      5.53925572e-10 -2.66519029e-10 1.83758672e-07 -1.84221312e-06
      2.48158987e-08 6.09295769e-09 -2.90138075e-07 -1.79954316e-06
      -3.71326280e-07 -1.72683023e-08 9.92334925e-09 0. 0. 0. 0. 0. 0.
      0. 0. 0. 0. 0. -1.97330130e-09 -2.78082695e-08 -2.86128685e-08
      -6.90218315e-07 -8.68958750e-07 -6.50841821e-06 -9.19365630e-06
      -1.00517536e-05 -1.00722827e-05 -1.00289535e-05 -9.35021581e-06
      -5.03998081e-06 -9.44562260e-07 -1.35896556e-08 -1.99112060e-09 0.
      0. 0. 8.58613014e-10 -3.94660260e-09 4.68952010e-07
      -1.01602677e-06 7.43895567e-09 3.13889936e-09 -2.67675233e-07
      -1.79783638e-06 -8.05659255e-08 -7.44622808e-09 1.37541822e-09 0.
      0. 0. 0. 0. 0. 0. 0. 0. 0. 0. -2.35067361e-08 -2.46708520e-08
      -2.53405517e-07 -8.22259778e-07 -3.29857698e-06 -6.65480775e-06
      -9.60857869e-06 -1.00734287e-05 -1.00131556e-05 -1.00301077e-05
      -9.27585097e-06 -4.31847184e-06 -2.97829843e-07 -2.12059490e-08
      -3.98224120e-09 0. 0. 0. 3.15946769e-10 2.28924812e-09
      2.84693925e-07 -6.12732492e-07 -4.48859128e-09 2.72238987e-09
      -2.67675233e-07 -1.80064853e-06 1.51698487e-07 8.45465564e-09
      -6.15702322e-10 0. 0. 0. 0. 0. 0. 0. 0. 0. 0. 0. -2.25200854e-08
      -2.46708520e-08 -3.58047430e-07 -8.19096613e-07 -5.55257657e-06
      -7.42648353e-06 -9.83905193e-06 -1.00497618e-05 -1.00325387e-05
      -9.91943216e-06 -9.25135737e-06 -3.61089815e-06 -1.35896556e-08
      -1.15985346e-08 -1.15985346e-08 0. 0. 0. -6.85648471e-09
      -8.48169257e-10 2.30500191e-07 -6.79670165e-07 -8.12785483e-09
      3.28663741e-09 -2.68358264e-07 -1.80492464e-06 1.95699101e-07
      -7.67049091e-09 8.99171138e-09 0. 0. 0. 0. 0. 0. 0. 0. 0. 0. 0.
      -2.25200854e-08 -6.11769266e-08 -5.24769064e-07 -8.07498054e-07
      -6.53186180e-06 -8.58597377e-06 -1.00227635e-05 -1.00421457e-05
      -1.00164880e-05 -9.67297819e-06 -8.97699192e-06 -2.99254589e-06
      -1.35896556e-08 -1.99112060e-09 -1.15985346e-08 0. 0. 0.
      -5.86983395e-09 -2.99893577e-09 2.76063588e-07 -8.43638020e-07
      5.17668042e-09 3.82192811e-09 -2.66651483e-07 -1.78522339e-06
      -5.05358003e-07 -1.14049659e-08 1.19873027e-08 0. 0. 0. 0. 0. 0.
      0. 0. 0. 0. 0. 0. -1.79705523e-07 -7.95917344e-07 -8.22561503e-07
      -6.59986927e-06 -9.60009584e-06 -1.00323705e-05 -1.00316938e-05
      -9.97458574e-06 -9.32446528e-06 -7.36535367e-06 -2.98642135e-06
      -5.54031878e-08 -3.98224120e-09 0. 0. 0. 0. -4.03369282e-10
      3.27671423e-09 3.71791089e-07 -8.53084316e-07 1.10869740e-08
      1.27872664e-08 -2.67912782e-07 -1.71032809e-06 -2.13458043e-06
      2.32624089e-08 6.10937523e-09 0. 0. 0. 0. 0. 0. 0. 0. 0. 0. 0.
      -3.13741721e-09 -4.86029478e-07 -8.65450886e-07 -1.25498514e-06
      -6.90387697e-06 -1.00323705e-05 -1.00517536e-05 -1.00002435e-05
      -1.00731268e-05 -9.21597166e-06 -3.46406591e-06 -2.95975951e-06
      -1.83183090e-07 -1.15985346e-08 0. 0. 0. 0. 3.68171471e-09
      5.70362824e-09 6.84718998e-07 -8.44181727e-07 3.01115310e-09
      1.72759329e-09 -2.72336081e-07 -1.79219114e-06 -2.40064514e-06 0.
      -6.36663278e-10 0. 0. 0. 0. 0. 0. 0. 0. 0. 0. 0. -2.56575028e-08
      -7.93614845e-07 -1.44667160e-06 -6.11159658e-06 -6.85855684e-06
      -1.00632615e-05 -1.00260959e-05 -9.39155143e-06 -1.00292336e-05
      -9.25972745e-06 -3.45433841e-06 -2.98229725e-06 -2.55363783e-08
      -1.35896556e-08 -1.92148288e-08 0. 0. 0. -1.25316968e-09
      2.42691378e-09 6.80861433e-07 -8.46732689e-07 -6.03191896e-09
      -1.78836945e-09 -2.77881810e-07 -1.82750432e-06 -2.83814870e-06 0.
      -1.00294182e-08 0. 0. 0. 0. 0. 0. 0. 0. 0. -6.85469033e-08
      -2.46708520e-08 0. -8.12057920e-07 -5.37262304e-06 -6.56614020e-06
      -8.60741238e-06 -1.00238940e-05 -1.00421457e-05 -9.86932173e-06
      -9.67116921e-06 -9.25356471e-06 -3.07372875e-06 -9.72285761e-07 0.
      -1.99112060e-09 -9.60741442e-09 0. 0. 0. -9.86650650e-10
      -1.97330130e-09 3.71928763e-07 -8.34552736e-07 2.38452618e-08
      6.37515907e-09 -2.79400751e-07 -2.04256412e-06 -2.74642298e-06
      -1.99112060e-09 -2.03781294e-08 0. 0. 0. 0. 0. 0. 0. 0. 0.
      -5.13150056e-08 -2.56575028e-08 -2.35067361e-08 -8.44233000e-07
      -6.55036001e-06 -6.55128360e-06 -9.13161057e-06 -9.99504209e-06
      -9.99710574e-06 -1.00247207e-05 -9.37096320e-06 -7.93453455e-06
      -2.95056998e-06 -1.77563180e-07 0. 0. 0. 0. 0. 0. -2.95995184e-09
      -9.86650650e-10 2.78352019e-07 -8.46310911e-07 2.61864930e-08
      4.74464201e-08 -2.39094533e-07 -2.19665799e-06 -2.58205228e-06
      -3.15442095e-09 -3.04075485e-08 0. 0. 0. 0. 0. 0. 0. 0. 0.
      -4.12406775e-09 -2.21351499e-07 -3.49442956e-07 -9.62088734e-07
      -6.49902768e-06 -6.96561438e-06 -9.55532323e-06 -1.00089119e-05
      -9.67022606e-06 -1.00227480e-05 -9.23211883e-06 -5.35740037e-06
      -1.80089773e-06 -4.79881841e-08 0. 0. 0. 0. 0. 0. -2.95995184e-09
      0. 3.50377519e-07 -8.39658981e-07 3.37927375e-08 5.59724924e-08
      -2.34324006e-07 -2.29075363e-06 -2.43103432e-06 -2.25288961e-08
      -2.22096030e-08 0. 0. 0. 0. 0. 0. 0. 0. 0. -2.35067361e-08
      -4.96649648e-07 -7.59553927e-07 -2.80101835e-06 -6.50655420e-06
      -8.13056704e-06 -1.00291127e-05 -9.99698568e-06 -9.54375628e-06
      -9.79439938e-06 -9.24371670e-06 -3.32765057e-06 -4.78698325e-07
      -5.53245698e-08 0. 0. 0. 0. 0. 0. -9.86650650e-10 0.
      4.34242821e-07 -8.47182832e-07 3.57136578e-08 1.88922264e-08
      -2.64405429e-07 -2.50457333e-06 -2.13675844e-06 -5.21789580e-08
      -2.13655955e-08 0. 0. 0. 0. 0. 0. 0. 0. -2.25200854e-08
      -7.83140877e-08 -5.78676747e-07 -1.42167335e-06 -6.71354428e-06
      -6.67239738e-06 -9.65166782e-06 -9.99599888e-06 -9.96298149e-06
      -1.00195530e-05 -8.49399294e-06 -8.71734483e-06 -3.10225232e-06
      -4.57261365e-07 -9.33082660e-08 0. 0. 0. 0. 0. 0. -9.86650650e-10
      0. 4.33256162e-07 -8.39488223e-07 1.38695642e-08 1.01300799e-08
      -2.77138867e-07 -2.66698657e-06 -2.14144893e-06 -4.22004209e-10
      -1.66582463e-08 0. 0. 0. 0. 0. 0. 0. 0. -9.86650650e-10
      -8.91938470e-08 -7.68468567e-07 -4.35875290e-06 -6.50708853e-06
      -7.18008323e-06 -9.34826130e-06 -9.97872758e-06 -1.00645457e-05
      -1.00764419e-05 -4.22737139e-06 -5.65282971e-06 -2.07425524e-06
      -4.74156280e-07 -1.81682385e-08 0. 0. 0. 0. 0. 0. -4.93325336e-09
      -1.97330130e-09 4.33256162e-07 -8.46509749e-07 5.26559738e-08
      2.35758488e-08 -2.87818636e-07 -1.80597976e-06 -2.51736560e-06
      -2.35163622e-08 -2.16279528e-08 0. 0. 0. 0. 0. 0. 0. 0. 0.
      -4.99808209e-07 -8.11530867e-07 -6.17821752e-06 -6.51796245e-06
      -7.82786083e-06 -9.96237941e-06 -1.00281559e-05 -8.24041854e-06
      -9.97879124e-06 -8.49313074e-06 -3.88319086e-06 -2.03133231e-06
      -1.03807842e-07 -7.11852550e-08 0. 0. 0. 0. 0. 0. -9.86650650e-10
      -1.97330130e-09 4.34242821e-07 -8.59180091e-07 1.05682272e-08
      4.14724788e-08 -2.78185439e-07 -1.42952467e-06 -2.84180055e-06
      -2.33567157e-08 -1.21801849e-08 0. 0. 0. 0. 0. 0. 0. 0. 0.
      -7.27660961e-07 -4.28536623e-06 -6.54593850e-06 -6.66627147e-06
      -9.36249944e-06 -1.00697944e-05 -1.00655325e-05 -7.88435955e-06
      -9.45957254e-06 -8.78589162e-06 -3.17263016e-06 -6.28341752e-07
      -6.29408632e-08 -1.35896556e-08 0. 0. 0. 0. 0. 0. -9.86650650e-10
      -9.86650650e-10 4.35229481e-07 -8.48656100e-07 4.66125183e-09
      2.17867697e-08 1.65867948e-06 -1.34679317e-06 -2.95778591e-06
      -1.75506230e-07 -1.23398314e-08 0. 0. 0. 0. 0. 0. 0. 0.
      -1.63145700e-07 -8.19424088e-07 -6.20271112e-06 -4.60921137e-06
      -6.89126773e-06 -1.00125453e-05 -1.00688076e-05 -8.90641422e-06
      -9.00508530e-06 -9.24739288e-06 -6.23068809e-06 -2.99647650e-06
      -1.18784440e-08 -1.92148288e-08 -4.54205962e-09 0. 0. 0. 0. 0. 0.
      -9.86650650e-10 0. 4.35229481e-07 -1.58111533e-08 1.58606852e-08
      1.35876665e-09 3.30458170e-06 -1.33578362e-06 -2.92412551e-06
      -1.92729928e-07 -1.59000688e-08 0. 0. 0. 0. 0. 0. 0.
      -2.25200854e-08 -5.15094598e-07 -8.32168894e-07 -6.52014296e-06
      -4.48067749e-06 -7.39010284e-06 -1.00357902e-05 -1.00453008e-05
      -8.74563557e-06 -9.80853019e-06 -9.24739288e-06 -3.95091047e-06
      -2.38575331e-06 -9.60741442e-09 0. -4.54205962e-09 0. 0. 0. 0. 0.
      0. 0. 0. 4.35229481e-07 1.50935466e-06 1.42750851e-08
      7.82573295e-09 3.31699448e-06 -1.28007957e-06 -2.88645379e-06
      -1.17581811e-08 -1.37493013e-08 0. 0. 0. 0. 0. 0. -2.46708520e-08
      -2.56575028e-08 -8.47352624e-07 -2.18006880e-06 -6.54465430e-06
      -6.17061050e-06 -8.44844453e-06 -1.00379193e-05 -9.88124793e-06
      -1.00021916e-05 -8.16793818e-06 -7.94106836e-06 -3.45208696e-06
      -1.13568547e-06 0. 0. 0. 0. 0. 0. 0. 0. 0. 1.70678227e-09
      1.70678227e-09 4.33522700e-07 2.37308814e-06 -1.36965039e-09
      9.33515132e-09 3.32870013e-06 -1.11823829e-06 -2.88860451e-06
      -2.88222424e-08 -4.14188728e-09 0. 0. 0. 0. 0. 0. 0.
      -5.46041186e-08 -8.29031478e-07 -6.54266296e-06 -6.53355301e-06
      -4.27004943e-06 -1.00387861e-05 -9.96616018e-06 -9.00282612e-06
      -9.78359094e-06 -4.02028445e-06 -3.48171102e-06 -3.16191199e-06
      -2.34128350e-07 0. 0. 0. 0. 0. 0. 0. 0. 0. 1.70678227e-09
      3.41356454e-09 4.30109139e-07 7.44175338e-07 4.18361807e-08
      1.24880559e-08 3.18561615e-06 -9.84742769e-07 -2.89207901e-06
      -1.37493013e-08 -1.17581811e-08 0. 0. 0. 0. 0. -2.25200854e-08
      -2.54800359e-08 -3.19420366e-07 -8.49623632e-07 -6.58256067e-06
      -6.33955187e-06 -8.53079109e-06 -1.00333755e-05 -1.00203806e-05
      -5.33662069e-06 -9.45160900e-06 -8.79669369e-06 -3.03648858e-06
      -2.98496843e-06 -4.09999892e-08 0. 0. 0. 0. 0. 0. 0. 0. 0.
      1.70678227e-09 0. 4.31815920e-07 4.29740140e-07 -4.53300650e-08
      3.25768035e-09 3.15344550e-06 -1.25014606e-06 -2.65802669e-06
      -1.57404223e-08 -1.55807758e-08 0. 0. 0. 0. 0. 0. -3.25768035e-09
      -6.90167155e-07 -8.45042166e-07 -2.73786259e-06 -6.92770891e-06
      -6.88196997e-06 -9.99896656e-06 -9.43481064e-06 -4.85865621e-06
      -9.25485529e-06 -4.72533566e-06 -2.93470930e-06 -2.62925414e-06
      -4.57171545e-08 0. 0. 0. 0. 0. 0. 0. 0. 0. 0. 1.70678227e-09
      4.31815920e-07 -2.34197751e-06 -2.16263203e-08 -7.20131621e-10
      3.15344550e-06 -1.33288972e-06 -2.57901661e-06 -1.57404223e-08
      -4.14188728e-09 0. 0. 0. 0. 0. 0. -7.52397327e-08 -7.88326417e-07
      -4.33255718e-06 -5.00332953e-06 -7.05421553e-06 -8.60622731e-06
      -1.00310945e-05 -9.75772582e-06 -7.90862214e-06 -5.73198849e-06
      -3.31808246e-06 -2.94163806e-06 -1.19060383e-06 -2.34769786e-08 0.
      0. 0. 0. 0. 0. 0. 0. 0. 1.70678227e-09 3.41356454e-09
      4.31815920e-07 -2.00101840e-06 6.83616150e-08 3.70166475e-09
      3.15571674e-06 -1.16539786e-06 -2.57686588e-06 -1.15985346e-08
      -6.29265395e-09 0. 0. 0. 0. 0. 0. -7.29687031e-08 -2.46781201e-06
      -6.61908143e-06 -4.49597337e-06 -7.05393541e-06 -1.00408797e-05
      -8.37224252e-06 -9.69865596e-06 -7.33780553e-06 -3.54852682e-06
      -3.15539546e-06 -2.72425791e-06 -3.43546986e-07 -1.58606852e-08 0.
      0. 0. 0. 0. 0. 0. 0. 0. 1.70678227e-09 1.70678227e-09
      4.33522700e-07 -1.12980547e-06 1.02480229e-07 9.28757693e-09
      3.17554327e-06 -9.72360340e-07 -2.57702550e-06 -4.14188728e-09
      -1.59000688e-08 0. 0. 0. 0. 0. 0. -1.69758863e-07 -3.95413781e-06
      -6.14591136e-06 -3.15341867e-06 -7.89700334e-06 -9.36411288e-06
      -6.88492992e-06 -9.23122207e-06 -4.36860910e-06 -3.46738284e-06
      -3.00200509e-06 -2.47667276e-06 -2.47752752e-07 -5.22503356e-08 0.
      0. 0. 0. 0. 0. 0. 0. 0. 0. 1.70678227e-09 4.33522700e-07
      -9.29179350e-07 6.67366322e-08 6.86066359e-09 3.19585683e-06
      -9.43654186e-07 -2.50203038e-06 -6.29265395e-09 -2.74986025e-08 0.
      0. 0. 0. 0. 0. -5.12837687e-07 -3.16052615e-06 -5.26658278e-06
      -7.17124385e-06 -8.85890495e-06 -8.22391121e-06 -8.22318816e-06
      -9.07719459e-06 -4.25306234e-06 -3.17600802e-06 -2.99022327e-06
      -2.13103704e-06 -2.77391283e-08 -8.03955942e-08 0. 0. 0. 0. 0. 0.
      0. 0. 0. 1.70678227e-09 1.70678227e-09 4.33522700e-07
      -3.49963813e-07 -1.37499834e-09 5.23098187e-09 3.31813703e-06
      -7.66486551e-07 -2.15304749e-06 -9.60741442e-09 -4.45626647e-08 0.
      0. 0. 0. 0. 0. -5.61476213e-07 -4.35833499e-06 -7.11950452e-06
      -7.37125993e-06 -4.30932096e-06 -1.00688076e-05 -9.95442679e-06
      -8.95027006e-06 -4.23714437e-06 -2.96535336e-06 -2.95877271e-06
      -1.38695642e-08 -4.17349142e-08 -5.12934406e-08 0. 0. 0. 0. 0. 0.
      0. 0. 0. 3.41356454e-09 0. 4.33522700e-07 2.73925070e-06
      -1.70339263e-08 7.66097319e-09 3.30984176e-06 -4.93570894e-07
      -2.14834881e-06 -1.87233962e-09 -1.14797540e-08 0. 0. 0.
      -4.12406775e-09 -2.56575028e-08 -1.25630947e-07 -4.99449379e-06
      -6.50621996e-06 -7.28078521e-06 -9.05645993e-06 -9.19912782e-06
      -1.00355164e-05 -8.01315218e-06 -4.35376433e-06 -3.63746085e-06
      -2.94829874e-06 -7.27957229e-07 0. 0. 0. 0. 0. 0. 0. 0. 0. 0. 0.
      0. 3.53234553e-09 3.56342983e-10 4.33522700e-07 3.07107439e-06
      -4.55481564e-09 7.97494160e-09 3.32055538e-06 -5.72713361e-07
      -6.64783897e-07 2.37561998e-10 -1.88584846e-08 0. 0. 0.
      -5.28818411e-09 -2.56575028e-08 -9.56461506e-08 -2.38168718e-06
      -6.86072553e-06 -7.55553765e-06 -9.31289105e-06 -6.15561885e-06
      -1.00450034e-05 -7.43371720e-06 -3.51611948e-06 -3.52713164e-06
      -1.90081084e-06 -1.13705504e-07 0. 0. 0. 0. 0. 0. 0. 0. 0. 0. 0.
      0. 1.70678227e-09 1.82556326e-09 3.35647741e-07 3.36598418e-06
      2.20190852e-08 2.94529457e-07 3.66823770e-06 -6.79258278e-07
      -1.92148288e-08 -2.87034609e-08 -2.28407266e-08 0. 0. 0.
      -6.27483443e-09 -2.15076668e-09 -3.46826994e-07 -1.21725157e-06
      -5.09247729e-06 -8.09804078e-06 -9.70748988e-06 -7.03605292e-06
      -9.99582971e-06 -5.49158358e-06 -3.23205063e-06 -3.21600055e-06
      -9.28470854e-07 -2.34769786e-08 0. 0. 0. 0. 0. 0. 0. 0. 0. 0. 0.
      0. 1.70678227e-09 1.70678227e-09 2.88438997e-07 3.53522614e-06
      2.60686562e-07 1.50279106e-06 5.14232261e-06 -3.92039645e-08
      -1.92148288e-08 -3.84296577e-08 -2.29595081e-08 0. 0. 0.
      -6.27483443e-09 -3.13741721e-09 -6.86403723e-07 -3.45412400e-06
      -4.93176913e-06 -8.50480956e-06 -8.13953739e-06 -7.65700770e-06
      -9.96142171e-06 -3.73992748e-06 -2.99730345e-06 -2.94801885e-06
      -3.96164722e-07 -2.34769786e-08 0. 0. 0. 0. 0. 0. 0. 0. 0. 0. 0.
      0. 5.23912780e-09 1.82556326e-09 2.88438997e-07 3.23320705e-06
      4.84180873e-07 4.20785182e-06 7.32399803e-06 7.55675615e-07
      -1.87233962e-09 -1.15985346e-08 -1.33520937e-08 0. 0. 0.
      -2.35067361e-08 -2.56575028e-08 -2.12262898e-06 -5.39113125e-06
      -7.08608059e-06 -8.39810673e-06 -6.01304191e-06 -6.26076280e-06
      -9.75110561e-06 -3.54189729e-06 -2.95029008e-06 -2.46565719e-06
      -2.05017145e-07 -2.57480082e-08 0. 0. 0. 0. 0. 0. 0. 0. 0. 0. 0.
      0. 3.65112651e-09 1.18780999e-10 2.90383326e-07 2.69680459e-06
      2.02751994e-06 8.30870977e-06 8.45131308e-06 -2.55422179e-07
      1.18780999e-10 -3.08133643e-08 -5.73579984e-09 0. 0. 0.
      -2.44933851e-08 -1.00439719e-08 -6.54167616e-06 -1.56990347e-06
      -7.13901727e-06 -7.92640458e-06 -9.31191335e-06 -1.00012476e-05
      -8.98635881e-06 -3.60161016e-06 -2.91919673e-06 -8.15732847e-07
      -1.77209728e-07 -1.38695642e-08 0. 0. 0. 0. 0. 0. 0. 0. 0. 0. 0.
      0. 1.70678227e-09 0. 2.88839175e-07 2.61007926e-06 6.91531341e-06
      8.86734597e-06 8.84169913e-06 4.49715927e-08 -1.51599666e-09
      -3.38833628e-09 -1.92148288e-08 0. 0. 0. -4.81775864e-08
      -1.10509454e-07 -6.51619621e-06 -1.99685701e-06 -7.13054351e-06
      -7.91327693e-06 -9.32879993e-06 -9.35245680e-06 -5.97204553e-06
      -3.54434565e-06 -2.97780048e-06 -5.36557991e-07 -2.01911146e-08
      -1.35896556e-08 0. 0. 0. 0. 0. 0. 0. 0. 0. 0. 0. 0. 1.94434424e-09
      3.56342983e-10 2.71215754e-07 2.68610665e-06 6.94335222e-06
      9.34041327e-06 5.68625273e-06 3.74600972e-08 -1.87233962e-09
      -1.87233962e-09 -1.35896556e-08 0. 0. 0. -5.28818411e-09
      -9.68692291e-08 -6.53952566e-06 -5.94217045e-06 -2.74167769e-06
      -7.85757766e-06 -9.85770112e-06 -9.29765974e-06 -5.68992618e-06
      -3.55597399e-06 -2.74862714e-06 -5.36557991e-07 -1.58606852e-08
      -1.35896556e-08 0. 0. 0. 0. 0. 0. 0. 0. 0. 0. 0. 0. 1.18780999e-10
      3.65112651e-09 2.85988449e-07 1.41923817e-06 9.21883293e-06
      9.48473917e-06 4.63062997e-06 4.41757955e-08 2.37561998e-10
      -9.60741442e-09 -1.99112060e-09 0. 0. 0. -5.28818411e-09
      -3.18305467e-07 -6.06974118e-06 -7.12812516e-06 -3.78026539e-06
      -9.20862294e-06 -1.00335428e-05 -9.62795366e-06 -4.36025448e-06
      -3.41326950e-06 -1.35975108e-06 -2.44559658e-07 -1.35896556e-08
      -1.15985346e-08 0. 0. 0. 0. 0. 0. 0. 0. 0. 0. 0. 0. 1.18780999e-10
      1.82556326e-09 2.90264552e-07 1.06831681e-06 9.98786891e-06
      9.74477916e-06 4.87273837e-06 3.38170238e-08 1.18780999e-10
      -9.60741442e-09 0. 0. 0. 0. -2.79285324e-08 -4.79602932e-07
      -3.85081148e-06 -6.76979516e-06 -4.34243157e-06 -1.00514735e-05
      -1.00688076e-05 -7.52059532e-06 -3.53661881e-06 -3.14105637e-06
      -5.54042458e-07 -3.38490516e-08 -2.67822351e-08 0. 0. 0.
      -3.25768035e-09 -2.35067361e-08 -6.29265395e-09 -5.28818411e-09
      -2.27102981e-09 0. -3.98224120e-09 0. 0. 0. 0. 0. 2.90264552e-07
      8.05418324e-07 9.90760873e-06 1.00111483e-05 4.35323682e-06
      4.84564886e-08 0. 0. 0. 0. 0. 0. -2.79285324e-08 -5.84124109e-07
      -3.13119290e-06 -6.57997953e-06 -4.32680508e-06 -1.00539037e-05
      -9.85222778e-06 -6.43585781e-06 -3.56012538e-06 -2.97053907e-06
      -5.35117920e-07 -1.99112060e-09 -3.10443866e-08 -4.26215063e-09
      -5.24880095e-09 0. -2.87555366e-08 -2.35067361e-08 -3.42211841e-08
      -2.78082695e-08 -6.53318022e-09 -4.26215063e-09 -1.05154214e-08 0.
      0. 0. 1.82556326e-09 0. 2.02637523e-07 5.10973564e-07
      8.28032262e-06 9.37456753e-06 2.48753508e-06 6.65870985e-08 0. 0.
      0. 0. 0. 0. -5.37589138e-08 -1.69997838e-06 -6.54347423e-06
      -7.01878253e-06 -7.24419215e-06 -1.00794023e-05 -9.46840009e-06
      -9.17859870e-06 -3.49386255e-06 -2.82642782e-06 -4.01801827e-07
      -1.99112060e-09 -2.13107523e-08 -2.87733553e-08 -3.20310356e-08
      -9.86650650e-10 -2.35067361e-08 -3.09063033e-08 -2.79285324e-08
      -2.97777114e-09 -8.52430126e-09 -6.25327123e-09 -1.33462699e-08 0.
      0. 0. 5.47668977e-09 1.82556326e-09 1.82556326e-09 4.83070266e-07
      4.61210584e-06 5.89997262e-06 2.20792049e-06 5.79085864e-08 0. 0.
      0. 0. 0. 0. -2.54992187e-07 -6.54093037e-06 -6.61533613e-06
      -6.42102486e-06 -9.88825468e-06 -9.99909662e-06 -1.00300604e-05
      -4.37966992e-06 -3.15643047e-06 -2.04618868e-06 -6.98312874e-08
      -4.82978493e-08 -2.87733553e-08 -2.67822351e-08 -9.50314103e-08
      -5.93772320e-09 -7.45024451e-08 -5.21598267e-08 -2.35046453e-08
      -3.01995620e-08 -6.53318022e-09 -3.98224120e-09 -2.27102981e-09 0.
      0. 0. 5.47668977e-09 7.30225302e-09 0. 5.28227758e-07
      2.17318438e-06 3.05459548e-06 1.77850609e-06 9.65898828e-09 0. 0.
      0. 0. 0. 0. -2.28859506e-07 -3.49850507e-06 -7.04160084e-06
      -7.03038131e-06 -9.79948800e-06 -1.00568823e-05 -1.00517709e-05
      -4.35616312e-06 -3.19716082e-06 -7.91956836e-07 -2.59393516e-07
      -4.31006100e-07 -4.91627759e-07 -4.93338973e-07 -3.27555973e-08
      -3.00220968e-08 -4.26215063e-09 -4.54205962e-09 -4.27971116e-07
      -7.96448241e-09 -1.99112060e-09 -4.54205962e-09 0. 0. 0. 0. 0.
      1.82556326e-09 1.82556326e-09 2.35783517e-07 9.26869575e-07
      1.92906714e-06 5.53208508e-07 3.75909579e-08 0. 0. 0. 0. 0. 0.
      -1.79397531e-07 -1.44899980e-06 -3.66195059e-06 -7.01315730e-06
      -9.98156793e-06 -1.00752604e-05 -1.00537445e-05 -4.87412490e-06
      -3.76241860e-06 -1.11927045e-06 -9.73610440e-07 -7.09392566e-07
      -7.74656030e-07 -7.29615806e-07 -9.13248869e-07 -4.30974666e-07
      -4.54183663e-07 -4.28823910e-07 -5.26778194e-07 -5.57152369e-08
      -2.27102981e-09 -4.26215063e-09 -3.98224120e-09 0. 0. 0. 0.
      3.65112651e-09 0. 1.32701729e-07 2.96886014e-07 8.70415420e-07
      3.60665773e-08 2.08357545e-08 0. 0. 0. 0. 0. 0. -1.82952945e-07
      -3.88000490e-06 -4.79237679e-06 -7.05620641e-06 -8.89277635e-06
      -1.00656525e-05 -1.00537445e-05 -7.37385426e-06 -3.16899127e-06
      -1.34146899e-06 -4.34525055e-06 -8.81321910e-07 -3.90992454e-06
      -2.07673543e-06 -1.30072817e-06 -5.95258484e-07 -2.51917709e-06
      -9.05443756e-07 -5.74929970e-07 -4.73008328e-07 -1.05809299e-07
      -8.52430126e-09 -6.25327123e-09 0. 0. 0. 0. 1.82556326e-09
      1.82556326e-09 5.22341850e-08 6.78615351e-08 1.15131016e-07
      5.27194359e-08 2.55697117e-08 0. 0. 0. 0. 0. 0. -1.86388093e-07
      -5.70756674e-06 -7.09611822e-06 -7.85237262e-06 -8.72951114e-06
      -8.70253916e-06 -1.00558955e-05 -9.58082273e-06 -3.95839243e-06
      -3.52364623e-06 -7.01829049e-06 -3.28513124e-06 -6.71738417e-06
      -3.27242469e-06 -3.46537195e-06 -3.07249707e-06 -5.38682616e-06
      -2.19704953e-06 -1.32932337e-06 -1.41194221e-06 -3.12885845e-07
      -8.52430126e-09 -8.80420981e-09 0. 0. 0. 3.65112651e-09 0.
      3.65112651e-09 4.14631742e-08 5.56534552e-08 1.90476559e-08
      8.22593620e-08 2.37523849e-08 0. 0. 0. 0. 0. 0. -1.68858463e-07
      -4.87659463e-06 -7.13030522e-06 -9.25369477e-06 -9.54984171e-06
      -7.30629426e-06 -1.00558955e-05 -8.88054910e-06 -5.92178094e-06
      -7.08668904e-06 -7.05472758e-06 -6.89758008e-06 -7.02787884e-06
      -4.41242810e-06 -7.06126048e-06 -5.85371345e-06 -7.45439957e-06
      -3.89507977e-06 -3.69432996e-06 -2.18328501e-06 -5.53996074e-07
      -1.99112060e-09 -1.07953309e-08 0. 0. 0. 9.12781584e-09
      1.82556326e-09 1.82556326e-09 6.08878707e-08 8.66136673e-08
      2.78932060e-08 1.90373122e-08 5.10146192e-09 0. 0. 0. 0. 0. 0.
      -2.15250708e-07 -6.51927667e-06 -7.15403803e-06 -1.00472744e-05
      -8.08205368e-06 -9.76212959e-06 -1.00108555e-05 -5.43596298e-06
      -4.77990261e-06 -7.37766049e-06 -7.07557047e-06 -5.99233499e-06
      -7.07130812e-06 -7.60272906e-06 -7.51009793e-06 -2.55097325e-06
      -7.55344445e-06 -4.31055241e-06 -7.55597785e-06 -1.67885435e-06
      -7.53006987e-07 -2.81555970e-08 -3.98224120e-09 0. 0. 0. 0. 0.
      1.82556326e-09 2.67011675e-08 1.01752882e-08 0. 0. 0. 0. 0. 0. 0.
      0. 0. -5.66455640e-07 -6.55135636e-06 -7.10424229e-06
      -1.00774105e-05 -9.90817171e-06 -6.75735100e-06 -9.40379960e-06
      -9.69656048e-06 -9.62900049e-06 -7.62322179e-06 -7.49401033e-06
      -2.24683072e-06 -7.57117823e-06 -7.59407840e-06 -6.96351617e-06
      -9.41433154e-06 -7.62951095e-06 -7.33129446e-06 -6.94733626e-06
      -1.67136341e-06 -1.05748461e-06 -3.12349101e-07 -4.26215063e-09 0.
      0. 0. 0. 0. 0. 0. 0. 0. 0. 0. 0. 0. 0. 0. 0. 0. -6.25993039e-07
      -3.77799847e-06 -3.48635558e-06 -1.00022344e-05 -1.00207717e-05
      -9.24615870e-06 -9.87672138e-06 -6.20594756e-06 -7.29982412e-06
      -9.51256425e-06 -8.94956247e-06 -1.89649722e-06 -7.59407840e-06
      -7.61659885e-06 -8.78231458e-06 -1.00472744e-05 -5.09862775e-06
      -7.81802009e-06 -5.46516912e-06 -1.94779068e-06 -1.09235327e-06
      -4.76249113e-07 -6.41291686e-09 0. 0. 0. 0. 0. 0. 0. 0. 0. 0. 0.
      0. 0. 0. 0. 0. 0. -6.15101214e-07 -5.17123635e-06 -6.35504193e-06
      -1.00247544e-05 -8.73911813e-06 -7.87044246e-06 -1.00343614e-05
      -8.14267423e-06 -8.67354902e-06 -1.00376674e-05 -9.80916138e-06
      -6.49341791e-06 -7.62620630e-06 -5.98938050e-06 -9.33954470e-06
      -9.64191258e-06 -7.81778635e-06 -7.02289026e-06 -4.63057586e-06
      -3.30861803e-06 -1.08992265e-06 -5.19773835e-07 -2.34769786e-08 0.
      0. 0. 0. 0. 0. 0. 0. 0. 0. 0. 0. 0. 0. 0. 0. 0. -6.25993039e-07
      -6.52342806e-06 -6.85424038e-06 -1.00207717e-05 -8.89874991e-06
      -8.11816335e-06 -9.71908048e-06 -9.71908048e-06 -7.41242457e-06
      -8.38409323e-06 -7.74061846e-06 -7.35777712e-06 -7.74978253e-06
      -7.31643695e-06 -7.01997578e-06 -9.34915170e-06 -1.00247544e-05
      -6.46215904e-06 -4.39258247e-06 -4.14561737e-06 -1.50746325e-06
      -5.17782723e-07 -2.34769786e-08 0. 0. 0. 0. 0. 0. 0. 0. 0. 0. 0.
      0. 0. 0. 0. 0. 0. -6.58120541e-07 -6.51596156e-06 -6.14170312e-06
      -1.00111647e-05 -1.00452835e-05 -1.00343614e-05 -9.58396049e-06
      -9.31371869e-06 -5.03490310e-06 -6.89776789e-06 -6.36689310e-06
      -5.04781565e-06 -8.53842903e-06 -1.00697944e-05 -4.55237387e-06
      -9.31702471e-06 -8.94378991e-06 -7.56779400e-06 -5.88851526e-06
      -4.13600992e-06 -2.47234652e-06 -5.13520547e-07 -4.30153335e-09 0.
      0. 0. 0. 0. 0. 0. 0. 0. 0. 0. 0. 0. 0. 0. 0. 0. -6.89097647e-07
      -6.55582562e-06 -8.79556592e-06 -9.29119869e-06 -9.51440870e-06
      -9.13487293e-06 -9.31371869e-06 -9.44883959e-06 -6.72390934e-06
      -8.16850024e-06 -9.47135959e-06 -5.80389133e-06 -1.00151474e-05
      -1.00568823e-05 -4.93521520e-06 -9.41671169e-06 -6.65965445e-06
      -9.49567766e-06 -9.29968974e-06 -4.98089094e-06 -3.54755389e-06
      -5.19653611e-07 -1.60597136e-08 0. 0. 0. 0. 0. 0. 0. 0. 0. 0. 0.
      0. 0. 0. 0. 0. 0. -7.98188353e-07 -6.52544895e-06 -4.59320154e-06
      -5.11338476e-06 -6.49803133e-06 -4.38313464e-06 -5.05742310e-06
      -9.92176138e-06 -7.88534635e-06 -1.00794023e-05 -1.00343614e-05
      -1.00505795e-05 -1.00697944e-05 -1.00280595e-05 -4.30795808e-06
      -1.00794023e-05 -7.93038635e-06 -6.47519209e-06 -9.37446657e-06
      -9.83243717e-06 -3.72934301e-06 -5.08175333e-07 -5.45702505e-08 0.
      0. 0. 0. 0. 0. 0. 0. 0. 0. 0. 0. 0. 0. 0. 0. 0. -6.54939640e-07
      -2.48796391e-06 -8.25084044e-06 -5.04383343e-06 -6.48711011e-06
      -9.17859870e-06 -9.29119869e-06 -1.00343614e-05 -6.69178189e-06
      -1.00022344e-05 -1.00022344e-05 -9.46175260e-06 -8.22645325e-06
      -1.00151474e-05 -9.14647080e-06 -1.00568823e-05 -4.89017521e-06
      -7.64688048e-06 -5.11626013e-06 -5.05829939e-06 -3.54325243e-06
      -5.24195627e-07 -1.98429255e-08 0. 0. 0. 0. 0. 0. 0. 0. 0. 0. 0.
      0. 0. 0. 0. 0. 0. -3.90395343e-07 -3.23778909e-06 -8.81087908e-06
      -8.51391724e-06 -7.47998502e-06 -7.59059412e-06 -6.09334711e-06
      -1.00118414e-05 -8.95339781e-06 -1.00247544e-05 -1.00343614e-05
      -9.85420138e-06 -5.45317698e-06 -7.57006501e-06 -9.55183259e-06
      -6.58878889e-06 -5.83601877e-06 -7.75140597e-06 -4.32502202e-06
      -4.10906796e-06 -3.52717097e-06 -5.21924619e-07 -1.05548041e-08 0.
      0. 0. 0. 0. 0. 0. 0. 0. 0. 0. 0. 0. 0. 0. 0. 0. -2.87278823e-07
      -3.39017902e-06 -8.79010076e-06 -9.69428947e-06 -7.90808281e-06
      -6.48284777e-06 -4.33352261e-06 -7.32780973e-06 -1.00526195e-05
      -8.89995317e-06 -9.67404048e-06 -1.00697944e-05 -5.50683808e-06
      -7.24738447e-06 -6.66302640e-06 -4.65856147e-06 -7.25180598e-06
      -7.82091047e-06 -4.32275101e-06 -7.16463410e-06 -3.52302914e-06
      -5.24036011e-07 -8.96385632e-09 0. 0. 0. 0. 0. 0. 0. 0. 0. 0. 0.
      0. 0. 0. 0. 0. 0. -2.03331894e-07 -1.92785637e-06 -7.19117497e-06
      -7.41119720e-06 -6.53122061e-06 -5.64080437e-06 -4.64454160e-06
      -5.04803256e-06 -7.65540517e-06 -8.74231318e-06 -7.71252235e-06
      -1.00451234e-05 -7.01991257e-06 -6.51299251e-06 -4.34762524e-06
      -4.11329984e-06 -7.80944993e-06 -6.52459084e-06 -4.35496486e-06
      -9.33206775e-06 -3.52286929e-06 -1.03199500e-06 -6.81308965e-09 0.
      0. 0. 0. 0. 0. 0. 0. 0. 0. 0. 0. 0. 0. 0. 0. 0. -3.63814578e-08
      -2.29932823e-07 -4.19506068e-06 -4.13199450e-06 -4.28973726e-06
      -4.11827432e-06 -4.77542198e-06 -4.73023510e-06 -3.80886377e-06
      -8.64634148e-06 -4.76635387e-06 -8.56603674e-06 -7.03395972e-06
      -4.17776755e-06 -4.15500926e-06 -3.79284370e-06 -6.74100602e-06
      -4.16659987e-06 -4.22037465e-06 -7.42143993e-06 -3.52087818e-06
      -1.49830009e-06 -9.60741442e-09 0. 0. 0. 0. 0. 0. 0. 0. 0. 0. 0.
      0. 0. 0. 0. 0. 0. -6.27483443e-09 -6.33137134e-08 -3.03613706e-06
      -3.53577389e-06 -4.10293842e-06 -3.53760538e-06 -3.53219684e-06
      -3.55957832e-06 -3.86099282e-06 -3.81380164e-06 -3.78303730e-06
      -3.76229968e-06 -4.08367214e-06 -3.65588107e-06 -3.71489750e-06
      -3.65318988e-06 -3.54045210e-06 -3.51712492e-06 -3.64630273e-06
      -3.54892313e-06 -3.43563534e-06 -3.14180596e-07 -2.14858584e-08 0.
      0. 0. 0. 0. 0. 0. 0. 0. 0. 0. 0. 0. 0. 0. 0. 0. -3.88203247e-08
      -7.55921370e-09 -3.03097659e-06 -3.59322394e-06 -3.08612834e-06
      -3.62356536e-06 -3.58638204e-06 -3.57693943e-06 -3.55522707e-06
      -3.55021871e-06 -3.56308396e-06 -3.53713699e-06 -3.38252153e-06
      -3.56105852e-06 -3.04655714e-06 -3.01317255e-06 -3.08524682e-06
      -3.00889542e-06 -2.63034099e-06 -2.94517781e-06 -2.54110705e-06
      -4.31082761e-08 -1.18784440e-08 0. 0. 0. 0. 0. 0. 0. 0. 0. 0. 0.
      0. 0. 0. 0. 0. 0. -3.00792991e-08 -4.38381029e-08 -3.04243918e-06
      -3.51034737e-06 -2.98366626e-06 -3.55586326e-06 -3.53235646e-06
      -3.58081411e-06 -3.54874373e-06 -3.55941870e-06 -3.52781444e-06
      -3.57018052e-06 -2.81149460e-06 -2.70709347e-06 -2.60495017e-06
      -2.96271878e-06 -2.62042704e-06 -2.60820798e-06 -2.46793184e-06
      -2.55928512e-06 -2.44454532e-06 -1.38695642e-08 -3.33643015e-08 0.
      0. 0. 0. 0. 0. 0. 0. 0. 0. 0. 0. 0. 0. 0. 0. 0. -2.79285324e-08
      -8.59636842e-08 -2.69258021e-06 -2.84921657e-06 -2.96319445e-06
      -2.99930116e-06 -2.89079026e-06 -2.89223431e-06 -3.17719173e-06
      -3.01270597e-06 -3.22422306e-06 -3.24681287e-06 -2.53352459e-06
      -2.47146932e-06 -2.46075501e-06 -2.64073242e-06 -2.51437655e-06
      -2.47219396e-06 -2.47030539e-06 -2.51208780e-06 -1.50301878e-06
      -1.58606852e-08 -2.54680987e-08 0. 0. 0. 0. 0. 0. 0. 0. 0. 0. 0.
      0. 0. 0. 0. 0. 0. -5.25993826e-08 -7.19344726e-08 -2.45401475e-06
      -2.45541924e-06 -2.73222440e-06 -2.59348212e-06 -2.50729931e-06
      -2.45968135e-06 -2.72820284e-06 -2.58346881e-06 -2.77113168e-06
      -2.78967468e-06 -2.48192168e-06 -2.44866942e-06 -2.45959086e-06
      -2.45111801e-06 -2.49471395e-06 -1.74833269e-06 -1.34927279e-06
      -1.41351813e-06 -5.03847673e-07 -2.31970692e-08 -8.24439184e-09 0.
      0. 0. 0. 0. 0. 0. 0. 0. 0. 0. 0. 0. 0. 0. 0. 0. -6.44778240e-08
      -4.49925928e-08 -1.81460985e-06 -2.45286833e-06 -2.45302795e-06
      -2.50005928e-06 -2.53625012e-06 -2.46836544e-06 -2.47695266e-06
      -2.50588573e-06 -2.47870344e-06 -2.46976333e-06 -2.46805212e-06
      -2.44525199e-06 -1.71966042e-06 -1.71680301e-06 -1.73456419e-06
      -6.68487871e-07 -2.32996360e-08 -8.34031226e-08 -1.18784440e-08
      -1.15985346e-08 -1.81317148e-08 0. 0. 0. 0. 0. 0. 0. 0. 0. 0. 0.
      0. 0. 0. 0. 0. 0. -8.04253517e-08 -4.48723299e-08 -3.06413654e-07
      -2.47866387e-06 -2.47880575e-06 -2.45204137e-06 -2.44989064e-06
      -2.45517890e-06 -2.49708160e-06 -2.50548555e-06 -2.49891309e-06
      -2.43282648e-06 -2.08574670e-06 -2.07170933e-06 -5.53245698e-08
      -4.50401707e-08 -4.94619670e-08 -5.05688789e-08 -2.24725092e-08
      -9.86650650e-10 -2.27102981e-09 -1.38695642e-08 -2.34769786e-08 0.
      0. 0. 0. 0. 0. 0. 0. 0. 0. 0. 0. 0. 0. 0. 0. 0. 0. 0. 0.
      -2.44989064e-06 -2.44989064e-06 -2.43067575e-06 -2.43067575e-06
